{"learner":{"attributes":{"scikit_learn":"{\"_estimator_type\": \"classifier\"}"},"feature_names":[],"feature_types":[],"gradient_booster":{"model":{"gbtree_model_param":{"num_parallel_tree":"1","num_trees":"200"},"iteration_indptr":[0,1,2,3,4,5,6,7,8,9,10,11,12,13,14,15,16,17,18,19,20,21,22,23,24,25,26,27,28,29,30,31,32,33,34,35,36,37,38,39,40,41,42,43,44,45,46,47,48,49,50,51,52,53,54,55,56,57,58,59,60,61,62,63,64,65,66,67,68,69,70,71,72,73,74,75,76,77,78,79,80,81,82,83,84,85,86,87,88,89,90,91,92,93,94,95,96,97,98,99,100,101,102,103,104,105,106,107,108,109,110,111,112,113,114,115,116,117,118,119,120,121,122,123,124,125,126,127,128,129,130,131,132,133,134,135,136,137,138,139,140,141,142,143,144,145,146,147,148,149,150,151,152,153,154,155,156,157,158,159,160,161,162,163,164,165,166,167,168,169,170,171,172,173,174,175,176,177,178,179,180,181,182,183,184,185,186,187,188,189,190,191,192,193,194,195,196,197,198,199,200],"tree_info":[0,0,0,0,0,0,0,0,0,0,0,0,0,0,0,0,0,0,0,0,0,0,0,0,0,0,0,0,0,0,0,0,0,0,0,0,0,0,0,0,0,0,0,0,0,0,0,0,0,0,0,0,0,0,0,0,0,0,0,0,0,0,0,0,0,0,0,0,0,0,0,0,0,0,0,0,0,0,0,0,0,0,0,0,0,0,0,0,0,0,0,0,0,0,0,0,0,0,0,0,0,0,0,0,0,0,0,0,0,0,0,0,0,0,0,0,0,0,0,0,0,0,0,0,0,0,0,0,0,0,0,0,0,0,0,0,0,0,0,0,0,0,0,0,0,0,0,0,0,0,0,0,0,0,0,0,0,0,0,0,0,0,0,0,0,0,0,0,0,0,0,0,0,0,0,0,0,0,0,0,0,0,0,0,0,0,0,0,0,0,0,0,0,0,0,0,0,0,0,0],"trees":[{"base_weights":[-2.0045286E-1,3.919582E-1,-5.081194E-1,1.4650842E0,2.3579544E-1,5.268587E-1,-6.219089E-1,1.7641476E-1,7.9347074E-1,1.2704812E0,1.19060844E-1,1.5894903E-1,3.3597386E-1,3.1784393E-2,-7.04625E-1,1.0975184E0,1.2943664E-3,2.1677242E-1,4.9805656E-1,1.3536935E-1,5.1480904E-2,-3.125826E-1,4.645453E-1,-5.7181096E-1,1.4389312E-1,4.6735126E-1,-7.691022E-1,4.070803E-2,1.3739963E-1,1.24903E-1,-1.8335607E-2,8.086671E-2,-6.3553066E-3,3.4006443E-2,-7.38925E-2,1.2976723E-2,7.602057E-2,-1.5381299E-2,-6.968563E-2,3.064845E-2,-2.7786314E-2,8.6066216E-2,-1.8335607E-2,-8.286633E-3,-8.2765006E-2],"categories":[],"categories_nodes":[],"categories_segments":[],"categories_sizes":[],"default_left":[0,0,0,0,0,0,0,0,0,0,0,0,0,0,0,0,0,0,0,0,0,0,0,0,0,0,0,0,0,0,0,0,0,0,0,0,0,0,0,0,0,0,0,0,0],"id":0,"left_children":[1,3,5,7,9,11,13,-1,15,17,19,-1,21,23,25,27,-1,-1,29,-1,31,33,35,37,39,41,43,-1,-1,-1,-1,-1,-1,-1,-1,-1,-1,-1,-1,-1,-1,-1,-1,-1,-1],"loss_changes":[5.006601E1,1.5421599E1,2.1586224E1,9.623203E-1,9.913046E0,3.2025943E0,8.840736E0,0E0,1.2769847E0,4.70343E0,6.2698708E0,0E0,1.5531211E0,1.3866194E0,1.130233E1,1.8583107E-1,0E0,0E0,3.1879888E0,0E0,6.4165716E0,1.1948831E0,1.3358881E0,6.113994E-2,1.2546962E0,2.249669E0,5.461426E0,0E0,0E0,0E0,0E0,0E0,0E0,0E0,0E0,0E0,0E0,0E0,0E0,0E0,0E0,0E0,0E0,0E0,0E0],"parents":[2147483647,0,0,1,1,2,2,3,3,4,4,5,5,6,6,8,8,9,9,10,10,12,12,13,13,14,14,15,15,18,18,20,20,21,21,22,22,23,23,24,24,25,25,26,26],"right_children":[2,4,6,8,10,12,14,-1,16,18,20,-1,22,24,26,28,-1,-1,30,-1,32,34,36,38,40,42,44,-1,-1,-1,-1,-1,-1,-1,-1,-1,-1,-1,-1,-1,-1,-1,-1,-1,-1],"split_conditions":[1E0,1E0,1E0,7E0,1E0,1E0,1E0,1.7641476E-1,3E0,3E0,1E0,1.5894903E-1,1E0,1E0,1E0,9E0,1.2943664E-3,2.1677242E-1,1E0,1.3536935E-1,1E0,6E0,7E0,6E0,3E0,7E0,1E0,4.070803E-2,1.3739963E-1,1.24903E-1,-1.8335607E-2,8.086671E-2,-6.3553066E-3,3.4006443E-2,-7.38925E-2,1.2976723E-2,7.602057E-2,-1.5381299E-2,-6.968563E-2,3.064845E-2,-2.7786314E-2,8.6066216E-2,-1.8335607E-2,-8.286633E-3,-8.2765006E-2],"split_indices":[10,2,2,7,3,5,4,0,9,7,0,0,4,5,0,7,0,0,9,0,4,7,7,7,9,7,1,0,0,0,0,0,0,0,0,0,0,0,0,0,0,0,0,0,0],"split_type":[0,0,0,0,0,0,0,0,0,0,0,0,0,0,0,0,0,0,0,0,0,0,0,0,0,0,0,0,0,0,0,0,0,0,0,0,0,0,0,0,0,0,0,0,0],"sum_hessian":[2.725952E2,9.308546E1,1.7950975E2,1.0760337E1,8.232512E1,1.7421497E1,1.6208826E2,6.319563E0,4.440774E0,7.344357E0,7.498076E1,1.537191E0,1.5884307E1,1.8275494E1,1.4381276E2,2.903583E0,1.537191E0,2.561985E0,4.782372E0,2.903583E0,7.207718E1,2.391186E0,1.3493121E1,2.220387E0,1.6055107E1,7.173558E0,1.366392E2,1.537191E0,1.366392E0,1.8787891E0,2.903583E0,8.710749E0,6.336643E1,1.024794E0,1.366392E0,7.002759E0,6.490362E0,1.024794E0,1.195593E0,1.1785131E1,4.269975E0,4.269975E0,2.903583E0,1.0931136E1,1.2570807E2],"tree_param":{"num_deleted":"0","num_feature":"13","num_nodes":"45","size_leaf_vector":"1"}},{"base_weights":[-1.7125487E-1,3.230228E-1,-4.4345018E-1,1.2848825E0,1.7861685E-1,3.4561467E-1,-5.3377736E-1,-2.1969555E-2,1.451588E0,8.140211E-1,5.903178E-2,5.7631123E-1,-3.1857237E-1,1.3896994E-1,-6.232125E-1,2.3468645E-2,1.5632223E-1,9.864582E-1,-5.342132E-3,4.8947233E-1,-1.0151925E-1,8.011614E-1,-2.0282367E-1,-9.207677E-2,4.9462285E-2,4.5986435E-1,-3.1407195E-1,1.7020822E-1,-6.8410856E-1,1.11997746E-1,5.362709E-3,-1.837983E-2,1.601902E-2,7.321727E-2,-2.2139677E-3,5.896262E-2,-1.7661946E-2,1.1645931E-1,-5.18209E-3,-3.9864022E-2,9.342666E-3,1.4082389E-1,1.0690587E-2,1.15125E-2,-5.3970493E-2,7.1100146E-2,-6.0098607E-2,-9.475944E-3,-7.387208E-2],"categories":[],"categories_nodes":[],"categories_segments":[],"categories_sizes":[],"default_left":[0,0,0,0,0,0,0,0,0,0,0,0,0,0,0,0,0,0,0,0,0,0,0,0,0,0,0,0,0,0,0,0,0,0,0,0,0,0,0,0,0,0,0,0,0,0,0,0,0],"id":1,"left_children":[1,3,5,7,9,11,13,-1,15,17,19,21,23,25,27,-1,-1,29,31,33,35,37,39,-1,-1,41,43,45,47,-1,-1,-1,-1,-1,-1,-1,-1,-1,-1,-1,-1,-1,-1,-1,-1,-1,-1,-1,-1],"loss_changes":[3.6375984E1,1.3134902E1,1.2592644E1,3.4286442E0,6.3969045E0,3.01656E0,9.508934E0,0E0,1.1672611E0,1.8923979E0,5.0574007E0,2.6288862E0,3.1048865E0,2.9347546E0,6.8038216E0,0E0,0E0,1.3149471E0,1.2742239E-1,2.4818473E0,2.8865278E0,3.509892E0,2.6644212E-1,0E0,0E0,3.7461822E0,8.9034855E-1,4.8758764E0,4.0736465E0,0E0,0E0,0E0,0E0,0E0,0E0,0E0,0E0,0E0,0E0,0E0,0E0,0E0,0E0,0E0,0E0,0E0,0E0,0E0,0E0],"parents":[2147483647,0,0,1,1,2,2,3,3,4,4,5,5,6,6,8,8,9,9,10,10,11,11,12,12,13,13,14,14,17,17,18,18,19,19,20,20,21,21,22,22,25,25,26,26,27,27,28,28],"right_children":[2,4,6,8,10,12,14,-1,16,18,20,22,24,26,28,-1,-1,30,32,34,36,38,40,-1,-1,42,44,46,48,-1,-1,-1,-1,-1,-1,-1,-1,-1,-1,-1,-1,-1,-1,-1,-1,-1,-1,-1,-1],"split_conditions":[1E0,1E0,1E0,1E0,1E0,9E0,1E0,-2.1969555E-2,1E0,3E0,1E0,3E0,2E0,2E0,1E0,2.3468645E-2,1.5632223E-1,5E0,7E0,8E0,1E0,2E0,2E0,-9.207677E-2,4.9462285E-2,1E0,5E0,4E0,1E0,1.11997746E-1,5.362709E-3,-1.837983E-2,1.601902E-2,7.321727E-2,-2.2139677E-3,5.896262E-2,-1.7661946E-2,1.1645931E-1,-5.18209E-3,-3.9864022E-2,9.342666E-3,1.4082389E-1,1.0690587E-2,1.15125E-2,-5.3970493E-2,7.1100146E-2,-6.0098607E-2,-9.475944E-3,-7.387208E-2],"split_indices":[10,2,2,3,4,7,4,0,7,11,9,9,11,11,3,0,0,8,7,7,5,11,11,0,0,9,7,8,1,0,0,0,0,0,0,0,0,0,0,0,0,0,0,0,0,0,0,0,0],"split_type":[0,0,0,0,0,0,0,0,0,0,0,0,0,0,0,0,0,0,0,0,0,0,0,0,0,0,0,0,0,0,0,0,0,0,0,0,0,0,0,0,0,0,0,0,0,0,0,0,0],"sum_hessian":[2.6830817E2,9.5217186E1,1.7309099E2,1.1398214E1,8.381897E1,1.7488829E1,1.5560216E2,1.1052313E0,1.0292983E1,1.2356547E1,7.1462425E1,1.3078494E1,4.410335E0,1.8193499E1,1.3740866E2,1.1255776E0,9.167405E0,1.0039728E1,2.3168185E0,1.8857197E1,5.260523E1,1.0127525E1,2.9509685E0,2.4579017E0,1.9524333E0,1.0641179E1,7.5523195E0,9.666595E0,1.2774207E2,8.607138E0,1.432591E0,1.0617867E0,1.2550318E0,1.2497484E1,6.3597126E0,4.484381E0,4.8120846E1,6.845522E0,3.2820034E0,1.5685581E0,1.3824103E0,2.0752673E0,8.565912E0,2.7710407E0,4.781279E0,5.727963E0,3.9386325E0,1.1065333E1,1.16676735E2],"tree_param":{"num_deleted":"0","num_feature":"13","num_nodes":"49","size_leaf_vector":"1"}},{"base_weights":[-1.7304334E-1,4.9167767E-1,-3.1956497E-1,6.1352766E-1,-2.2008982E-1,4.9808282E-1,-4.2199412E-1,1.5000792E0,4.2368138E-1,5.3329E-2,-5.5984825E-1,1.1438013E0,2.8126994E-1,4.4312206E-1,-4.9685168E-1,1.8094919E0,1.1152292E-2,-2.2297044E-1,6.418025E-1,-7.4903375E-1,-4.372155E-3,3.377084E-1,1.5446103E0,7.222187E-1,-5.1336687E-2,7.546585E-1,-9.0960436E-2,1.5462661E-1,-5.9030974E-1,2.1955717E-1,7.667633E-2,-5.9670456E-2,3.3793267E-2,-3.605596E-2,7.64296E-2,-1.6213132E-2,-8.9059316E-2,7.305495E-2,-2.1685308E-2,1.8730818E-1,5.4665882E-2,-2.7984384E-2,1.3833775E-1,-3.2703385E-2,6.606476E-2,1.3759723E-1,4.1973773E-2,4.949579E-2,-2.6018484E-2,-2.8401509E-2,-6.856995E-2],"categories":[],"categories_nodes":[],"categories_segments":[],"categories_sizes":[],"default_left":[0,0,0,0,0,0,0,0,0,0,0,0,0,0,0,0,0,0,0,0,0,0,0,0,0,0,0,0,0,0,0,0,0,0,0,0,0,0,0,0,0,0,0,0,0,0,0,0,0,0,0],"id":2,"left_children":[1,3,5,7,9,11,13,15,17,-1,19,21,23,25,27,29,-1,31,33,35,-1,37,39,41,43,45,-1,47,49,-1,-1,-1,-1,-1,-1,-1,-1,-1,-1,-1,-1,-1,-1,-1,-1,-1,-1,-1,-1,-1,-1],"loss_changes":[2.5605902E1,4.262184E0,1.8191938E1,6.2474365E0,2.2673988E0,3.0888329E0,1.2611694E1,2.727952E0,5.0905085E0,0E0,5.3250384E-1,1.3514805E0,2.9063163E0,7.3309503E0,1.0842339E1,5.3504753E-1,0E0,2.2118475E0,3.5276766E0,2.024045E-1,0E0,8.566775E-1,1.536293E-1,6.004084E0,2.5883272E0,2.2029529E0,0E0,3.3680594E0,4.323181E0,0E0,0E0,0E0,0E0,0E0,0E0,0E0,0E0,0E0,0E0,0E0,0E0,0E0,0E0,0E0,0E0,0E0,0E0,0E0,0E0,0E0,0E0],"parents":[2147483647,0,0,1,1,2,2,3,3,4,4,5,5,6,6,7,7,8,8,10,10,11,11,12,12,13,13,14,14,15,15,17,17,18,18,19,19,21,21,22,22,23,23,24,24,25,25,27,27,28,28],"right_children":[2,4,6,8,10,12,14,16,18,-1,20,22,24,26,28,30,-1,32,34,36,-1,38,40,42,44,46,-1,48,50,-1,-1,-1,-1,-1,-1,-1,-1,-1,-1,-1,-1,-1,-1,-1,-1,-1,-1,-1,-1,-1,-1],"split_conditions":[1E0,9.100621E0,1E0,1E0,7E0,1E0,1E0,7.7573752E0,5.3550563E0,5.3329E-2,1.065924E1,6.211116E0,6.856613E0,9.100621E0,1E0,2E0,1.1152292E-2,2E0,1E0,9.446305E0,-4.372155E-3,5.296403E0,7.6035933E0,5.4696474E0,3E0,3E0,-9.0960436E-2,2E0,4E0,2.1955717E-1,7.667633E-2,-5.9670456E-2,3.3793267E-2,-3.605596E-2,7.64296E-2,-1.6213132E-2,-8.9059316E-2,7.305495E-2,-2.1685308E-2,1.8730818E-1,5.4665882E-2,-2.7984384E-2,1.3833775E-1,-3.2703385E-2,6.606476E-2,1.3759723E-1,4.1973773E-2,4.949579E-2,-2.6018484E-2,-2.8401509E-2,-6.856995E-2],"split_indices":[8,12,2,4,6,9,3,12,12,0,12,12,12,12,4,11,0,9,3,12,0,12,12,12,9,6,0,11,6,0,0,0,0,0,0,0,0,0,0,0,0,0,0,0,0,0,0,0,0,0,0],"split_type":[0,0,0,0,0,0,0,0,0,0,0,0,0,0,0,0,0,0,0,0,0,0,0,0,0,0,0,0,0,0,0,0,0,0,0,0,0,0,0,0,0,0,0,0,0,0,0,0,0,0,0],"sum_hessian":[2.6029184E2,4.6586838E1,2.13705E2,3.989508E1,6.691759E0,2.3361053E1,1.9034395E2,5.819132E0,3.4075947E1,1.9028244E0,4.7889347E0,4.7974935E0,1.856356E1,1.4766818E1,1.7557713E2,4.510834E0,1.3082979E0,8.589347E0,2.54866E1,3.174183E0,1.6147516E0,2.2051468E0,2.5923467E0,7.478134E0,1.1085425E1,1.2361949E1,2.4048693E0,2.1945406E1,1.5363171E2,2.4851007E0,2.0257332E0,5.1164126E0,3.4729342E0,2.5637753E0,2.2922825E1,1.0337207E0,2.1404622E0,1.105023E0,1.1001239E0,1.2906185E0,1.3017281E0,3.2019484E0,4.2761855E0,8.380839E0,2.7045867E0,3.2410696E0,9.120879E0,1.19488125E1,9.996593E0,3.7428143E1,1.16203575E2],"tree_param":{"num_deleted":"0","num_feature":"13","num_nodes":"51","size_leaf_vector":"1"}},{"base_weights":[-1.5220664E-1,2.2468433E-1,-3.697661E-1,9.6884096E-1,1.0135026E-1,5.6109075E-2,-5.047701E-1,-8.244832E-3,1.113811E0,3.664279E-1,-1.6572227E-1,3.538968E-1,-4.9238306E-1,1.2497218E-1,-5.8657455E-1,3.0838868E-1,1.3190986E0,-1.8894348E-1,6.105847E-1,2.899093E-1,-3.3407658E-1,1.0626066E0,-1.3265127E-3,2.3519453E-1,-7.659532E-1,6.016917E-1,-2.7758515E-1,2.5256345E-1,-6.2902284E-1,7.490038E-2,-1.3215144E-2,1.7083505E-1,7.75408E-2,-3.862058E-2,9.172673E-2,7.5527996E-2,-3.5377335E-2,6.3762054E-2,-3.828643E-2,-1.8205557E-2,-8.244766E-2,-5.56476E-2,1.6631922E-1,1.3066988E-1,-3.116107E-2,-3.8873818E-2,6.6119336E-2,-2.0309824E-3,-1.0752209E-1,1.3473418E-1,5.6138975E-3,-5.323867E-2,3.6996465E-2,-6.88888E-2,6.3043386E-2,-4.037109E-2,-7.866262E-2],"categories":[],"categories_nodes":[],"categories_segments":[],"categories_sizes":[],"default_left":[0,0,0,0,0,0,0,0,0,0,0,0,0,0,0,0,0,0,0,0,0,0,0,0,0,0,0,0,0,0,0,0,0,0,0,0,0,0,0,0,0,0,0,0,0,0,0,0,0,0,0,0,0,0,0,0,0],"id":3,"left_children":[1,3,5,7,9,11,13,-1,15,17,19,21,23,25,27,29,31,33,35,37,39,41,43,45,47,49,51,53,55,-1,-1,-1,-1,-1,-1,-1,-1,-1,-1,-1,-1,-1,-1,-1,-1,-1,-1,-1,-1,-1,-1,-1,-1,-1,-1,-1,-1],"loss_changes":[2.1810339E1,8.859531E0,9.709238E0,2.1888247E0,6.0670257E0,6.941003E0,6.664734E0,0E0,1.6039085E0,5.9312654E0,3.3914375E0,6.907612E0,3.1650252E0,3.1481776E0,4.1987305E0,8.317665E-1,6.616421E-1,3.3790274E0,4.457432E0,3.0801816E0,2.2225978E0,9.833101E0,8.229038E0,1.5495523E0,2.545528E0,2.9459155E0,1.6995263E0,2.63084E0,3.526062E0,0E0,0E0,0E0,0E0,0E0,0E0,0E0,0E0,0E0,0E0,0E0,0E0,0E0,0E0,0E0,0E0,0E0,0E0,0E0,0E0,0E0,0E0,0E0,0E0,0E0,0E0,0E0,0E0],"parents":[2147483647,0,0,1,1,2,2,3,3,4,4,5,5,6,6,8,8,9,9,10,10,11,11,12,12,13,13,14,14,15,15,16,16,17,17,18,18,19,19,20,20,21,21,22,22,23,23,24,24,25,25,26,26,27,27,28,28],"right_children":[2,4,6,8,10,12,14,-1,16,18,20,22,24,26,28,30,32,34,36,38,40,42,44,46,48,50,52,54,56,-1,-1,-1,-1,-1,-1,-1,-1,-1,-1,-1,-1,-1,-1,-1,-1,-1,-1,-1,-1,-1,-1,-1,-1,-1,-1,-1,-1],"split_conditions":[1E0,1E0,1E0,2E0,8E0,7.477698E0,1E0,-8.244832E-3,5.5952363E0,1E0,1E0,4E0,4E0,6.856613E0,3.595613E0,4E0,6E0,9.729589E0,5E0,8E0,3E0,2E0,1E0,8.073287E0,1E0,4E0,3E0,1E0,7E0,7.490038E-2,-1.3215144E-2,1.7083505E-1,7.75408E-2,-3.862058E-2,9.172673E-2,7.5527996E-2,-3.5377335E-2,6.3762054E-2,-3.828643E-2,-1.8205557E-2,-8.244766E-2,-5.56476E-2,1.6631922E-1,1.3066988E-1,-3.116107E-2,-3.8873818E-2,6.6119336E-2,-2.0309824E-3,-1.0752209E-1,1.3473418E-1,5.6138975E-3,-5.323867E-2,3.6996465E-2,-6.88888E-2,6.3043386E-2,-4.037109E-2,-7.866262E-2],"split_indices":[10,2,9,6,6,12,2,0,12,11,9,7,6,12,12,7,6,12,8,7,11,8,2,12,11,7,9,11,6,0,0,0,0,0,0,0,0,0,0,0,0,0,0,0,0,0,0,0,0,0,0,0,0,0,0,0,0],"split_type":[0,0,0,0,0,0,0,0,0,0,0,0,0,0,0,0,0,0,0,0,0,0,0,0,0,0,0,0,0,0,0,0,0,0,0,0,0,0,0,0,0,0,0,0,0,0,0,0,0,0,0,0,0,0,0,0,0],"sum_hessian":[2.6397888E2,9.6600105E1,1.6737877E2,1.2759303E1,8.3840805E1,4.0428856E1,1.2694991E2,1.5985155E0,1.1160788E1,4.1890846E1,4.194996E1,2.643275E1,1.3996104E1,1.4534389E1,1.1241553E2,2.7751262E0,8.385661E0,1.2861519E1,2.9029325E1,1.1123492E1,3.0826468E1,8.160424E0,1.8272326E1,3.8628583E0,1.0133246E1,6.4277706E0,8.106618E0,5.1744566E0,1.07241066E2,1.0373776E0,1.7377486E0,3.6385374E0,4.7471237E0,1.14674835E1,1.3940357E0,2.5430466E1,3.5988607E0,7.367817E0,3.7556753E0,2.4578514E1,6.2479525E0,2.2278748E0,5.9325495E0,2.8877044E0,1.5384622E1,1.6028033E0,2.260055E0,3.2831802E0,6.8500657E0,2.0948677E0,4.332903E0,5.945136E0,2.1614819E0,1.246289E0,3.9281676E0,4.5605038E1,6.163603E1],"tree_param":{"num_deleted":"0","num_feature":"13","num_nodes":"57","size_leaf_vector":"1"}},{"base_weights":[-1.6402425E-1,3.405257E-1,-2.8337812E-1,7.8261966E-1,-8.689248E-4,3.7638772E-1,-3.539242E-1,-1.7519106E-1,9.8363364E-1,1.3871595E-1,-1.1647575E-1,1.5148072E-1,2.0293413E-1,2.1398458E-1,-4.061784E-1,6.846141E-2,-8.775791E-2,1.194901E0,7.827751E-2,-4.9342698E-1,1.855335E-1,-2.4070941E-1,4.8106295E-1,-5.8541286E-1,6.09154E-1,4.4405606E-1,-4.5244634E-1,-3.006043E-2,1.3601081E-1,7.469433E-2,-7.8223E-2,-5.925442E-2,3.0805066E-2,1.0474203E-1,-8.2809E-3,3.0429319E-2,-5.1663943E-2,5.880751E-2,-2.4805786E-2,-9.8501354E-2,1.9163111E-2,8.754233E-2,-7.471364E-2,1.0505284E-1,-2.5471939E-2,-5.8739097E-3,-5.4433037E-2],"categories":[],"categories_nodes":[],"categories_segments":[],"categories_sizes":[],"default_left":[0,0,0,0,0,0,0,0,0,0,0,0,0,0,0,0,0,0,0,0,0,0,0,0,0,0,0,0,0,0,0,0,0,0,0,0,0,0,0,0,0,0,0,0,0,0,0],"id":4,"left_children":[1,3,5,7,9,11,13,15,17,-1,19,-1,21,23,25,-1,-1,27,29,31,33,35,37,39,41,43,45,-1,-1,-1,-1,-1,-1,-1,-1,-1,-1,-1,-1,-1,-1,-1,-1,-1,-1,-1,-1],"loss_changes":[1.5696944E1,7.5489707E0,9.909534E0,4.368267E0,4.8502207E0,3.7947671E0,5.733324E0,3.3964367E0,3.380764E0,0E0,3.2671998E0,0E0,2.4827054E0,5.62797E0,7.068796E0,0E0,0E0,4.03022E0,3.177455E0,1.189939E0,3.836671E0,1.3690302E0,1.0918558E0,2.0611408E0,4.863807E0,4.2998676E0,5.975643E0,0E0,0E0,0E0,0E0,0E0,0E0,0E0,0E0,0E0,0E0,0E0,0E0,0E0,0E0,0E0,0E0,0E0,0E0,0E0,0E0],"parents":[2147483647,0,0,1,1,2,2,3,3,4,4,5,5,6,6,7,7,8,8,10,10,12,12,13,13,14,14,17,17,18,18,19,19,20,20,21,21,22,22,23,23,24,24,25,25,26,26],"right_children":[2,4,6,8,10,12,14,16,18,-1,20,-1,22,24,26,-1,-1,28,30,32,34,36,38,40,42,44,46,-1,-1,-1,-1,-1,-1,-1,-1,-1,-1,-1,-1,-1,-1,-1,-1,-1,-1,-1,-1],"split_conditions":[1E0,7E0,1E0,5.0368185E0,1E0,1E0,1E0,3.9764116E0,3E0,1.3871595E-1,1.1E1,1.5148072E-1,1E0,1E0,1E0,6.846141E-2,-8.775791E-2,1E0,6.9186506E0,1E1,1.2E1,6E0,1.3E1,1.1E1,8.9448595E0,2E0,3E0,-3.006043E-2,1.3601081E-1,7.469433E-2,-7.8223E-2,-5.925442E-2,3.0805066E-2,1.0474203E-1,-8.2809E-3,3.0429319E-2,-5.1663943E-2,5.880751E-2,-2.4805786E-2,-9.8501354E-2,1.9163111E-2,8.754233E-2,-7.471364E-2,1.0505284E-1,-2.5471939E-2,-5.8739097E-3,-5.4433037E-2],"split_indices":[8,6,1,12,0,3,3,12,11,0,6,0,11,11,0,0,0,7,12,7,6,6,6,6,12,11,6,0,0,0,0,0,0,0,0,0,0,0,0,0,0,0,0,0,0,0,0],"split_type":[0,0,0,0,0,0,0,0,0,0,0,0,0,0,0,0,0,0,0,0,0,0,0,0,0,0,0,0,0,0,0,0,0,0,0,0,0,0,0,0,0,0,0,0,0,0,0],"sum_hessian":[2.580576E2,4.9012367E1,2.0904523E2,2.0793327E1,2.8219042E1,1.9774397E1,1.8927083E2,3.6291707E0,1.7164156E1,1.3239655E0,2.6895077E1,1.5920643E0,1.8182331E1,1.5686949E1,1.7358388E2,1.643113E0,1.9860576E0,1.365736E1,3.5067956E0,1.1681305E1,1.5213772E1,7.05825E0,1.1124082E1,5.030073E0,1.0656876E1,8.514847E0,1.6506903E2,1.2770997E0,1.238026E1,2.0476348E0,1.4591609E0,1.0627685E1,1.0536202E0,2.9227908E0,1.2290981E1,2.3378532E0,4.720397E0,9.869059E0,1.2550235E0,3.1450605E0,1.8850129E0,9.204398E0,1.4524779E0,4.289004E0,4.2258425E0,3.15447E1,1.3352434E2],"tree_param":{"num_deleted":"0","num_feature":"13","num_nodes":"47","size_leaf_vector":"1"}},{"base_weights":[-1.7427754E-1,1.5516555E-1,-3.6123806E-1,7.818534E-1,4.756158E-2,4.734774E-1,-4.1463548E-1,1.3390971E0,3.6714455E-1,1.9111528E-1,-5.062974E-1,8.934635E-1,-6.189655E-1,1.2807408E-1,-4.857825E-1,3.426185E-2,1.6203399E-1,1.023735E0,-8.572487E-2,1.2297119E0,1.0837618E-1,2.1678443E-1,-7.2727007E-1,3.1666455E-1,1.6679633E-1,-1.9955335E-2,-7.3626176E-2,4.364001E-1,-3.0385074E-1,3.4093015E-2,-5.615786E-1,-2.2811485E-2,1.5589657E-1,2.5988368E-2,-7.88126E-2,1.682844E-1,5.850595E-3,7.5803675E-2,-1.673265E-3,-5.8170468E-2,1.0969756E-1,-9.19344E-2,-2.4050962E-2,-1.4801911E-2,1.2006066E-1,-2.7866146E-2,8.658364E-2,3.4055453E-2,-5.0457228E-2,3.200318E-2,-3.6664885E-2,-4.0898904E-2,-7.88759E-2],"categories":[],"categories_nodes":[],"categories_segments":[],"categories_sizes":[],"default_left":[0,0,0,0,0,0,0,0,0,0,0,0,0,0,0,0,0,0,0,0,0,0,0,0,0,0,0,0,0,0,0,0,0,0,0,0,0,0,0,0,0,0,0,0,0,0,0,0,0,0,0,0,0],"id":5,"left_children":[1,3,5,7,9,11,13,15,17,19,21,23,25,27,29,-1,-1,31,33,35,37,39,41,43,-1,-1,-1,45,47,49,51,-1,-1,-1,-1,-1,-1,-1,-1,-1,-1,-1,-1,-1,-1,-1,-1,-1,-1,-1,-1,-1,-1],"loss_changes":[1.6019432E1,6.3375244E0,7.579323E0,2.6947098E0,6.596131E0,5.33664E0,6.094105E0,9.877205E-1,2.8479986E0,5.5077047E0,2.889934E0,3.0189219E0,2.4570584E-2,2.649212E0,5.469589E0,0E0,0E0,2.9462252E0,1.7624385E0,2.4208221E0,5.0435863E0,3.9926522E0,1.0248957E0,2.5540247E0,0E0,0E0,0E0,3.753182E0,1.2661681E0,2.2421694E0,3.8641777E0,0E0,0E0,0E0,0E0,0E0,0E0,0E0,0E0,0E0,0E0,0E0,0E0,0E0,0E0,0E0,0E0,0E0,0E0,0E0,0E0,0E0,0E0],"parents":[2147483647,0,0,1,1,2,2,3,3,4,4,5,5,6,6,7,7,8,8,9,9,10,10,11,11,12,12,13,13,14,14,17,17,18,18,19,19,20,20,21,21,22,22,23,23,27,27,28,28,29,29,30,30],"right_children":[2,4,6,8,10,12,14,16,18,20,22,24,26,28,30,-1,-1,32,34,36,38,40,42,44,-1,-1,-1,46,48,50,52,-1,-1,-1,-1,-1,-1,-1,-1,-1,-1,-1,-1,-1,-1,-1,-1,-1,-1,-1,-1,-1,-1],"split_conditions":[1E0,1E0,1E0,6E0,3E0,1.1E1,1E0,1E0,1E0,1E0,1E0,4E0,2E0,7.110685E0,1E0,3.426185E-2,1.6203399E-1,8E0,1.3E1,7.6819963E0,1E0,6.606353E0,3E0,8E0,1.6679633E-1,-1.9955335E-2,-7.3626176E-2,1E0,4E0,2E0,7.4047575E0,-2.2811485E-2,1.5589657E-1,2.5988368E-2,-7.88126E-2,1.682844E-1,5.850595E-3,7.5803675E-2,-1.673265E-3,-5.8170468E-2,1.0969756E-1,-9.19344E-2,-2.4050962E-2,-1.4801911E-2,1.2006066E-1,-2.7866146E-2,8.658364E-2,3.4055453E-2,-5.0457228E-2,3.200318E-2,-3.6664885E-2,-4.0898904E-2,-7.88759E-2],"split_indices":[10,2,0,6,11,6,2,4,4,0,9,8,9,12,4,0,0,6,6,12,4,12,9,6,0,0,0,11,6,11,12,0,0,0,0,0,0,0,0,0,0,0,0,0,0,0,0,0,0,0,0,0,0],"split_type":[0,0,0,0,0,0,0,0,0,0,0,0,0,0,0,0,0,0,0,0,0,0,0,0,0,0,0,0,0,0,0,0,0,0,0,0,0,0,0,0,0,0,0,0,0,0,0,0,0,0,0,0,0],"sum_hessian":[2.581759E2,9.353245E1,1.6464346E2,1.2788123E1,8.074432E1,9.426119E0,1.5521735E2,4.505321E0,8.282802E0,6.464424E1,1.6100082E1,6.9401445E0,2.4859746E0,1.7897217E1,1.3732013E2,1.4799391E0,3.025382E0,2.8664055E0,5.416396E0,3.7469893E0,6.089725E1,3.7729452E0,1.2327138E1,4.7852516E0,2.1548927E0,1.1336606E0,1.352314E0,1.0436702E1,7.460515E0,1.7543276E1,1.1977685E2,1.0303419E0,1.8360636E0,4.052444E0,1.3639524E0,2.386731E0,1.3602585E0,9.016691E0,5.188056E1,2.1560981E0,1.6168468E0,8.201971E0,4.125167E0,3.6821249E0,1.1031269E0,4.047778E0,6.388923E0,1.6064489E0,5.854066E0,1.0355665E1,7.187611E0,7.3326294E1,4.6450554E1],"tree_param":{"num_deleted":"0","num_feature":"13","num_nodes":"53","size_leaf_vector":"1"}},{"base_weights":[-1.8218733E-1,1.5379226E-1,-3.877617E-1,-6.524201E-1,2.4052219E-1,2.1712281E-1,-4.7370398E-1,-8.1536114E-1,-1.9194627E-1,7.028062E-1,1.1244345E-1,5.2041864E-1,-2.3485655E-1,2.4293946E-1,-5.553054E-1,-2.3714589E-2,-8.947697E-2,-7.133911E-2,3.2245632E-2,3.5184962E-1,1.3423046E0,3.5199586E-1,-1.7033122E-1,-5.3900957E-2,7.6112884E-1,5.7012927E-2,-4.46311E-1,6.659327E-1,-2.702605E-1,-4.4951815E-2,-6.3123876E-1,1.4538935E-1,1.2436475E-2,5.6156805E-3,1.6756243E-1,1.7930739E-2,1.1614145E-1,7.997718E-2,-3.0865738E-2,1.12025045E-1,-3.2736942E-2,-9.278663E-2,8.675265E-4,-2.2550045E-2,1.0063138E-1,2.426188E-2,-4.8583176E-2,-2.8347908E-2,5.9156835E-2,-4.866327E-2,-8.660028E-2],"categories":[],"categories_nodes":[],"categories_segments":[],"categories_sizes":[],"default_left":[0,0,0,0,0,0,0,0,0,0,0,0,0,0,0,0,0,0,0,0,0,0,0,0,0,0,0,0,0,0,0,0,0,0,0,0,0,0,0,0,0,0,0,0,0,0,0,0,0,0,0],"id":6,"left_children":[1,3,5,7,9,11,13,15,17,19,21,23,25,27,29,-1,-1,-1,-1,31,33,35,37,-1,39,-1,41,43,45,47,49,-1,-1,-1,-1,-1,-1,-1,-1,-1,-1,-1,-1,-1,-1,-1,-1,-1,-1,-1,-1],"loss_changes":[1.7572472E1,6.9370685E0,8.295197E0,5.7035017E-1,5.147847E0,2.903743E0,8.222538E0,1.02219105E-1,1.260026E0,3.7833643E0,4.823197E0,3.5860922E0,1.7587008E0,3.4000258E0,4.7950363E0,0E0,0E0,0E0,0E0,3.2281752E0,2.633955E0,5.1583657E0,4.6648316E0,0E0,4.4956245E0,0E0,1.6643772E0,2.7817943E0,9.37514E-1,2.7786682E0,3.2541237E0,0E0,0E0,0E0,0E0,0E0,0E0,0E0,0E0,0E0,0E0,0E0,0E0,0E0,0E0,0E0,0E0,0E0,0E0,0E0,0E0],"parents":[2147483647,0,0,1,1,2,2,3,3,4,4,5,5,6,6,7,7,8,8,9,9,10,10,11,11,12,12,13,13,14,14,19,19,20,20,21,21,22,22,24,24,26,26,27,27,28,28,29,29,30,30],"right_children":[2,4,6,8,10,12,14,16,18,20,22,24,26,28,30,-1,-1,-1,-1,32,34,36,38,-1,40,-1,42,44,46,48,50,-1,-1,-1,-1,-1,-1,-1,-1,-1,-1,-1,-1,-1,-1,-1,-1,-1,-1,-1,-1],"split_conditions":[1E0,1E0,1E0,8.519544E0,3E0,7.2241764E0,1E0,3E0,5E0,2E0,2E0,4.701802E0,3E0,7E0,1E0,-2.3714589E-2,-8.947697E-2,-7.133911E-2,3.2245632E-2,1E0,4.6418037E0,1E1,1E0,-5.3900957E-2,9E0,5.7012927E-2,8E0,2E0,5.5640583E0,7.6819963E0,1E1,1.4538935E-1,1.2436475E-2,5.6156805E-3,1.6756243E-1,1.7930739E-2,1.1614145E-1,7.997718E-2,-3.0865738E-2,1.12025045E-1,-3.2736942E-2,-9.278663E-2,8.675265E-4,-2.2550045E-2,1.0063138E-1,2.426188E-2,-4.8583176E-2,-2.8347908E-2,5.9156835E-2,-4.866327E-2,-8.660028E-2],"split_indices":[10,7,2,12,6,12,1,6,6,6,11,12,6,6,4,0,0,0,0,1,12,7,5,0,7,0,6,6,12,12,6,0,0,0,0,0,0,0,0,0,0,0,0,0,0,0,0,0,0,0,0],"split_type":[0,0,0,0,0,0,0,0,0,0,0,0,0,0,0,0,0,0,0,0,0,0,0,0,0,0,0,0,0,0,0,0,0,0,0,0,0,0,0,0,0,0,0,0,0,0,0,0,0,0,0],"sum_hessian":[2.5255641E2,9.5966255E1,1.5659015E2,8.687523E0,8.727873E1,1.92907E1,1.3729945E2,5.847615E0,2.8399086E0,1.796154E1,6.931719E1,1.145352E1,7.837181E0,1.3833465E1,1.2346599E2,1.1874651E0,4.6601496E0,1.2181987E0,1.62171E0,1.2597973E1,5.363568E0,3.739405E1,3.1923143E1,1.8910906E0,9.562429E0,1.2775292E0,6.559652E0,7.42005E0,6.4134145E0,1.6196966E1,1.0726902E2,1.2330984E0,1.1364874E1,1.3444291E0,4.0191383E0,3.1825619E1,5.568431E0,3.3871E0,2.8536043E1,7.1682734E0,2.3941562E0,2.681858E0,3.877794E0,2.1436067E0,5.2764435E0,1.860799E0,4.5526156E0,1.2185325E1,4.0116415E0,6.828241E1,3.898661E1],"tree_param":{"num_deleted":"0","num_feature":"13","num_nodes":"51","size_leaf_vector":"1"}},{"base_weights":[-8.144692E-2,2.7495658E-1,-3.0809265E-1,5.5598485E-1,3.6868595E-2,5.493738E-1,-3.8983318E-1,-3.761302E-1,7.3111653E-1,1.1891961E-1,-6.914054E-1,1.264898E0,2.3325999E-1,5.6700144E-2,-4.5254475E-1,4.2921316E-2,-7.225882E-1,1.1912155E0,3.0712348E-1,2.0566206E-1,-6.5007275E-1,2.004639E-2,-9.802373E-2,1.9392113E-1,-2.1380253E-2,1.02821164E-1,-3.0312717E-2,3.3999586E-1,-3.5521275E-1,2.3465881E-1,-5.0101453E-1,-9.0587005E-2,-3.309799E-2,9.746051E-3,1.275935E-1,9.7210385E-2,5.558116E-3,4.483871E-3,1.0156162E-1,-9.688773E-2,3.3959012E-2,-9.0308376E-2,4.3017894E-2,-3.9179318E-2,7.219116E-2,5.22484E-2,-6.0977917E-2,6.264865E-2,-5.7426896E-2,-1.1582868E-3,-5.7386287E-2],"categories":[],"categories_nodes":[],"categories_segments":[],"categories_sizes":[],"default_left":[0,0,0,0,0,0,0,0,0,0,0,0,0,0,0,0,0,0,0,0,0,0,0,0,0,0,0,0,0,0,0,0,0,0,0,0,0,0,0,0,0,0,0,0,0,0,0,0,0,0,0],"id":7,"left_children":[1,3,5,7,9,11,13,15,17,19,21,23,25,27,29,-1,31,33,35,37,39,-1,-1,-1,-1,-1,41,43,45,47,49,-1,-1,-1,-1,-1,-1,-1,-1,-1,-1,-1,-1,-1,-1,-1,-1,-1,-1,-1,-1],"loss_changes":[2.0340069E1,6.5368476E0,1.0990617E1,7.600898E0,3.3165536E0,2.8255033E0,3.9728203E0,2.4748979E0,7.070322E0,3.4354637E0,1.6461184E0,4.4043922E0,2.2930136E0,2.250051E0,4.238138E0,0E0,1.16281986E-1,1.5374203E0,3.4896288E0,5.847505E0,1.9879081E0,0E0,0E0,0E0,0E0,0E0,4.0371275E0,3.4471984E0,2.0892086E0,3.1590328E0,4.12488E0,0E0,0E0,0E0,0E0,0E0,0E0,0E0,0E0,0E0,0E0,0E0,0E0,0E0,0E0,0E0,0E0,0E0,0E0,0E0,0E0],"parents":[2147483647,0,0,1,1,2,2,3,3,4,4,5,5,6,6,7,7,8,8,9,9,10,10,11,11,12,12,13,13,14,14,16,16,17,17,18,18,19,19,20,20,26,26,27,27,28,28,29,29,30,30],"right_children":[2,4,6,8,10,12,14,16,18,20,22,24,26,28,30,-1,32,34,36,38,40,-1,-1,-1,-1,-1,42,44,46,48,50,-1,-1,-1,-1,-1,-1,-1,-1,-1,-1,-1,-1,-1,-1,-1,-1,-1,-1,-1,-1],"split_conditions":[1E0,7E0,1E0,5.0881724E0,9.837912E0,2E0,1E0,3.9764116E0,7.2241764E0,5E0,4E0,5E0,2E0,7.2241764E0,1E0,4.2921316E-2,4.701802E0,1E0,2E0,4E0,1.4E1,2.004639E-2,-9.802373E-2,1.9392113E-1,-2.1380253E-2,1.02821164E-1,6E0,5.4696474E0,3E0,1E1,1E0,-9.0587005E-2,-3.309799E-2,9.746051E-3,1.275935E-1,9.7210385E-2,5.558116E-3,4.483871E-3,1.0156162E-1,-9.688773E-2,3.3959012E-2,-9.0308376E-2,4.3017894E-2,-3.9179318E-2,7.219116E-2,5.22484E-2,-6.0977917E-2,6.264865E-2,-5.7426896E-2,-1.1582868E-3,-5.7386287E-2],"split_indices":[10,6,3,12,12,8,2,12,12,8,7,6,6,12,0,0,12,7,7,8,6,0,0,0,0,0,6,12,6,6,4,0,0,0,0,0,0,0,0,0,0,0,0,0,0,0,0,0,0,0,0],"split_type":[0,0,0,0,0,0,0,0,0,0,0,0,0,0,0,0,0,0,0,0,0,0,0,0,0,0,0,0,0,0,0,0,0,0,0,0,0,0,0,0,0,0,0,0,0,0,0,0,0,0,0],"sum_hessian":[2.4975546E2,9.7003296E1,1.5275217E2,4.3877308E1,5.3125988E1,1.2796338E1,1.3995583E2,6.7584834E0,3.7118824E1,4.8498604E1,4.6273866E0,3.0013585E0,9.79498E0,1.724683E1,1.2270899E2,1.9610804E0,4.797403E0,1.6933645E1,2.0185179E1,4.424079E1,4.257811E0,1.2068291E0,3.4205575E0,1.8474565E0,1.1539019E0,1.7165883E0,8.078391E0,1.0322238E1,6.9245925E0,7.8315835E0,1.1487741E2,2.3733943E0,2.4240088E0,1.3719354E0,1.5561709E1,4.7536907E0,1.5431487E1,3.7792187E1,6.4486036E0,3.2362921E0,1.0215187E0,2.45821E0,5.6201816E0,3.5308704E0,6.7913675E0,1.320233E0,5.6043596E0,5.4279385E0,2.403645E0,1.5033543E1,9.9843864E1],"tree_param":{"num_deleted":"0","num_feature":"13","num_nodes":"51","size_leaf_vector":"1"}},{"base_weights":[-9.6805505E-2,6.433253E-1,-1.7524722E-1,9.381691E-1,1.1234549E-2,2.0417486E-1,-3.0366778E-1,1.6353892E0,6.280925E-1,-6.112734E-1,3.4662464E-1,-2.3164125E-1,3.2232663E-1,3.3120778E-1,-3.744855E-1,5.3895276E-2,1.9197743E-1,1.0686128E0,1.2293016E-1,-7.348161E-2,-1.6640903E-2,9.4794184E-2,-7.4516577E-3,-2.6962547E-2,-8.43012E-2,1.1018552E0,1.9889341E-1,5.808629E-1,-2.3394322E-1,1.9791824E-1,-4.640825E-1,1.4092273E-1,-2.6307864E-2,-6.4688526E-2,3.6798567E-2,6.359678E-2,-3.7776317E-2,-4.6317633E-2,5.078852E-2,2.538457E-2,1.3635038E-1,7.308125E-2,5.265364E-3,8.24412E-2,-4.860202E-2,-5.843104E-2,5.8883704E-2,6.78383E-2,-3.0530984E-2,3.9202157E-2,-5.225662E-2],"categories":[],"categories_nodes":[],"categories_segments":[],"categories_sizes":[],"default_left":[0,0,0,0,0,0,0,0,0,0,0,0,0,0,0,0,0,0,0,0,0,0,0,0,0,0,0,0,0,0,0,0,0,0,0,0,0,0,0,0,0,0,0,0,0,0,0,0,0,0,0],"id":8,"left_children":[1,3,5,7,9,11,13,15,17,19,21,23,25,27,29,-1,-1,31,33,-1,-1,-1,35,37,-1,39,41,43,45,47,49,-1,-1,-1,-1,-1,-1,-1,-1,-1,-1,-1,-1,-1,-1,-1,-1,-1,-1,-1,-1],"loss_changes":[1.4465798E1,4.4445553E0,1.0992037E1,2.494361E0,2.0107324E0,3.026331E0,7.6771984E0,3.3439445E-1,2.7389402E0,6.340432E-2,1.335068E0,1.5799582E0,4.1602516E0,2.5894048E0,7.8670883E0,0E0,0E0,3.4370136E0,1.584665E0,0E0,0E0,0E0,1.4120183E0,2.714923E0,0E0,9.854965E-1,3.1129436E0,3.6092758E0,2.0855217E0,5.337726E0,6.7831287E0,0E0,0E0,0E0,0E0,0E0,0E0,0E0,0E0,0E0,0E0,0E0,0E0,0E0,0E0,0E0,0E0,0E0,0E0,0E0,0E0],"parents":[2147483647,0,0,1,1,2,2,3,3,4,4,5,5,6,6,7,7,8,8,9,9,10,10,11,11,12,12,13,13,14,14,17,17,18,18,22,22,23,23,25,25,26,26,27,27,28,28,29,29,30,30],"right_children":[2,4,6,8,10,12,14,16,18,20,22,24,26,28,30,-1,-1,32,34,-1,-1,-1,36,38,-1,40,42,44,46,48,50,-1,-1,-1,-1,-1,-1,-1,-1,-1,-1,-1,-1,-1,-1,-1,-1,-1,-1,-1,-1],"split_conditions":[1E0,7.7004313E0,1E0,2E0,8.323439E0,5.2371116E0,1E0,1E0,2E0,4E0,1E0,4E0,1E0,3E0,1E0,5.3895276E-2,1.9197743E-1,3E0,1E0,-7.348161E-2,-1.6640903E-2,9.4794184E-2,1E0,2E0,-8.43012E-2,6.179685E0,1E0,8.868689E0,3E0,7.110685E0,1E0,1.4092273E-1,-2.6307864E-2,-6.4688526E-2,3.6798567E-2,6.359678E-2,-3.7776317E-2,-4.6317633E-2,5.078852E-2,2.538457E-2,1.3635038E-1,7.308125E-2,5.265364E-3,8.24412E-2,-4.860202E-2,-5.843104E-2,5.8883704E-2,6.78383E-2,-3.0530984E-2,3.9202157E-2,-5.225662E-2],"split_indices":[3,12,9,7,12,12,1,11,8,8,1,8,2,9,2,0,0,11,11,0,0,0,9,8,0,12,8,12,11,12,0,0,0,0,0,0,0,0,0,0,0,0,0,0,0,0,0,0,0,0,0],"split_type":[0,0,0,0,0,0,0,0,0,0,0,0,0,0,0,0,0,0,0,0,0,0,0,0,0,0,0,0,0,0,0,0,0,0,0,0,0,0,0,0,0,0,0,0,0,0,0,0,0,0,0],"sum_hessian":[2.4622296E2,2.2904833E1,2.2331813E2,1.5288949E1,7.6158834E0,5.632234E1,1.6699579E2,3.390692E0,1.1898257E1,2.3785503E0,5.2373333E0,1.1807713E1,4.4514626E1,1.6389374E1,1.5060641E2,1.2945913E0,2.0961006E0,5.7599673E0,6.13829E0,1.3514619E0,1.0270884E0,1.319404E0,3.9179292E0,9.628367E0,2.1793458E0,5.0014977E0,3.9513126E1,1.1348417E1,5.0409575E0,2.0219864E1,1.3038655E2,4.5404153E0,1.219552E0,1.0862385E0,5.0520515E0,1.1691446E0,2.7487845E0,5.3769836E0,4.251384E0,1.6438664E0,3.3576312E0,7.6587057E0,3.1854422E1,9.424298E0,1.9241182E0,3.7387202E0,1.302237E0,1.0165824E1,1.0054039E1,7.972933E0,1.2241363E2],"tree_param":{"num_deleted":"0","num_feature":"13","num_nodes":"51","size_leaf_vector":"1"}},{"base_weights":[-9.155515E-2,1.5159304E-1,-2.5902912E-1,8.6238176E-1,9.980583E-2,1.5907995E-1,-3.974358E-1,1.1621873E0,-2.8577382E-2,-3.9503697E-1,1.7928459E-1,4.3845734E-1,-3.645891E-1,3.9488995E-1,-4.9146402E-1,2.4047397E-2,1.469878E-1,4.4428766E-2,-7.3297817E-1,2.5368E-1,-4.6664086E-1,3.0287284E-1,1.1821251E-1,3.7131876E-1,-5.449685E-1,7.2058104E-2,1.2744898E-1,2.4621567E-1,-5.4584163E-1,-8.5691385E-2,6.399583E-2,-1.0191947E-1,-1.1636968E-2,7.884607E-2,1.4883948E-2,-7.076221E-2,3.579145E-2,4.629196E-2,-6.326332E-2,-2.0294411E-2,8.027039E-2,7.623141E-3,-9.918461E-2,3.8265828E-2,-8.164052E-2,7.2668E-2,-7.938045E-2,4.3524697E-2,-5.8806002E-2],"categories":[],"categories_nodes":[],"categories_segments":[],"categories_sizes":[],"default_left":[0,0,0,0,0,0,0,0,0,0,0,0,0,0,0,0,0,0,0,0,0,0,0,0,0,0,0,0,0,0,0,0,0,0,0,0,0,0,0,0,0,0,0,0,0,0,0,0,0],"id":9,"left_children":[1,3,5,7,9,11,13,15,-1,17,19,21,23,25,27,-1,-1,29,31,33,35,37,-1,39,41,43,-1,45,47,-1,-1,-1,-1,-1,-1,-1,-1,-1,-1,-1,-1,-1,-1,-1,-1,-1,-1,-1,-1],"loss_changes":[9.928249E0,3.5830197E0,8.406221E0,2.6171746E0,3.7693233E0,5.510034E0,8.284922E0,1.195333E0,0E0,2.0116484E0,4.044999E0,2.092247E0,1.9636444E0,3.3370967E0,4.0464554E0,0E0,0E0,4.1639395E0,1.2209525E0,4.027169E0,2.0001721E0,3.5715702E0,0E0,9.5731187E-1,3.1463325E0,3.0425045E0,0E0,4.266877E0,4.0309963E0,0E0,0E0,0E0,0E0,0E0,0E0,0E0,0E0,0E0,0E0,0E0,0E0,0E0,0E0,0E0,0E0,0E0,0E0,0E0,0E0],"parents":[2147483647,0,0,1,1,2,2,3,3,4,4,5,5,6,6,7,7,9,9,10,10,11,11,12,12,13,13,14,14,17,17,18,18,19,19,20,20,21,21,23,23,24,24,25,25,27,27,28,28],"right_children":[2,4,6,8,10,12,14,16,-1,18,20,22,24,26,28,-1,-1,30,32,34,36,38,-1,40,42,44,-1,46,48,-1,-1,-1,-1,-1,-1,-1,-1,-1,-1,-1,-1,-1,-1,-1,-1,-1,-1,-1,-1],"split_conditions":[1E0,1E0,1E0,9E0,4.701802E0,7.4047575E0,1E0,2E0,-2.8577382E-2,3.9133205E0,5E0,7.0618486E0,2E0,3E0,1E0,2.4047397E-2,1.469878E-1,2E0,1E1,5.7822604E0,3E0,6.754904E0,1.1821251E-1,4E0,1E0,4E0,1.2744898E-1,1.1E1,3.46697E0,-8.5691385E-2,6.399583E-2,-1.0191947E-1,-1.1636968E-2,7.884607E-2,1.4883948E-2,-7.076221E-2,3.579145E-2,4.629196E-2,-6.326332E-2,-2.0294411E-2,8.027039E-2,7.623141E-3,-9.918461E-2,3.8265828E-2,-8.164052E-2,7.2668E-2,-7.938045E-2,4.3524697E-2,-5.8806002E-2],"split_indices":[10,0,9,6,12,12,1,6,0,12,8,12,6,11,0,0,0,9,6,12,9,12,0,8,11,8,0,6,12,0,0,0,0,0,0,0,0,0,0,0,0,0,0,0,0,0,0,0,0],"split_type":[0,0,0,0,0,0,0,0,0,0,0,0,0,0,0,0,0,0,0,0,0,0,0,0,0,0,0,0,0,0,0,0,0,0,0,0,0,0,0,0,0,0,0,0,0,0,0,0,0],"sum_hessian":[2.4184727E2,9.86771E1,1.4317018E2,5.6382804E0,9.3038826E1,3.5569588E1,1.07600586E2,4.461163E0,1.1771171E0,1.2325937E1,8.071288E1,2.330115E1,1.226844E1,1.1075293E1,9.65253E1,1.5624014E0,2.8987617E0,5.7356763E0,6.590261E0,7.2921326E1,7.7915583E0,2.0898273E1,2.4028757E0,2.206769E0,1.0061671E1,8.893215E0,2.182078E0,6.384611E0,9.0140686E1,2.1073146E0,3.6283617E0,4.0550766E0,2.5351844E0,1.0883768E1,6.203756E1,6.139164E0,1.6523942E0,1.8276663E1,2.6216116E0,1.1737788E0,1.0329902E0,4.5567684E0,5.504903E0,7.011389E0,1.8818263E0,4.57319E0,1.811421E0,3.3348382E0,8.680585E1],"tree_param":{"num_deleted":"0","num_feature":"13","num_nodes":"49","size_leaf_vector":"1"}},{"base_weights":[-5.8434617E-2,2.1331789E-1,-2.5307548E-1,4.8058847E-1,1.0733122E-1,5.2838224E-1,-3.343425E-1,-9.304551E-2,7.7830005E-1,2.4428937E-1,-4.8051298E-1,9.2995477E-1,-2.7215603E-1,4.0485716E-1,-3.905607E-1,-3.162293E-1,2.886937E-1,8.733446E-1,-2.8246222E-2,6.895988E-1,1.6985206E-1,-1.1461603E-1,-7.4047977E-1,1.1751328E0,3.6806038E-1,4.8832398E-2,-6.65425E-1,7.2297037E-1,-2.6301263E-2,-2.3243591E-1,-6.5673E-1,-6.867511E-2,4.0408955E-3,7.372567E-2,-3.7420552E-2,-2.2189518E-2,9.531406E-2,1.111622E-1,-2.987965E-2,3.8090143E-2,-4.200397E-3,-8.619461E-2,3.9941937E-2,-9.352117E-2,1.9853892E-2,1.526954E-1,4.5865267E-3,-2.4493728E-2,1.0349842E-1,-7.903295E-2,-1.9652251E-2,8.147829E-2,2.1186514E-2,-3.0190412E-2,3.405152E-2,-3.3548642E-2,3.769315E-2,-9.972459E-2,-5.1741857E-2],"categories":[],"categories_nodes":[],"categories_segments":[],"categories_sizes":[],"default_left":[0,0,0,0,0,0,0,0,0,0,0,0,0,0,0,0,0,0,0,0,0,0,0,0,0,0,0,0,0,0,0,0,0,0,0,0,0,0,0,0,0,0,0,0,0,0,0,0,0,0,0,0,0,0,0,0,0,0,0],"id":10,"left_children":[1,3,5,7,9,11,13,15,17,19,21,23,25,27,29,31,33,35,-1,37,39,41,43,45,47,-1,49,51,53,55,57,-1,-1,-1,-1,-1,-1,-1,-1,-1,-1,-1,-1,-1,-1,-1,-1,-1,-1,-1,-1,-1,-1,-1,-1,-1,-1,-1,-1],"loss_changes":[1.2794622E1,2.8113136E0,9.11872E0,4.92422E0,6.0473905E0,4.641567E0,5.483738E0,9.94397E-1,2.1431074E0,1.885005E0,1.2710736E0,8.510647E-1,1.92015E0,1.3286754E0,4.8812904E0,9.747416E-1,1.5942276E0,1.7415895E0,0E0,3.8041673E0,2.3891768E0,3.0734024E0,1.6760845E0,2.3259869E0,2.0059276E0,0E0,7.538092E-2,8.6862564E-2,6.101904E-1,4.935272E0,1.5725174E0,0E0,0E0,0E0,0E0,0E0,0E0,0E0,0E0,0E0,0E0,0E0,0E0,0E0,0E0,0E0,0E0,0E0,0E0,0E0,0E0,0E0,0E0,0E0,0E0,0E0,0E0,0E0,0E0],"parents":[2147483647,0,0,1,1,2,2,3,3,4,4,5,5,6,6,7,7,8,8,9,9,10,10,11,11,12,12,13,13,14,14,15,15,16,16,17,17,19,19,20,20,21,21,22,22,23,23,24,24,26,26,27,27,28,28,29,29,30,30],"right_children":[2,4,6,8,10,12,14,16,18,20,22,24,26,28,30,32,34,36,-1,38,40,42,44,46,48,-1,50,52,54,56,58,-1,-1,-1,-1,-1,-1,-1,-1,-1,-1,-1,-1,-1,-1,-1,-1,-1,-1,-1,-1,-1,-1,-1,-1,-1,-1,-1,-1],"split_conditions":[1E0,1E0,1E0,1E0,3E0,4E0,1E0,8.301228E0,5E0,1E0,6.9186506E0,2E0,5.7046065E0,2E0,7.477698E0,1E0,9.100621E0,1E0,-2.8246222E-2,3E0,7.0618486E0,5.418697E0,4E0,7.0260797E0,7.3413734E0,4.8832398E-2,3E0,3E0,4E0,7.0618486E0,8.042881E0,-6.867511E-2,4.0408955E-3,7.372567E-2,-3.7420552E-2,-2.2189518E-2,9.531406E-2,1.111622E-1,-2.987965E-2,3.8090143E-2,-4.200397E-3,-8.619461E-2,3.9941937E-2,-9.352117E-2,1.9853892E-2,1.526954E-1,4.5865267E-3,-2.4493728E-2,1.0349842E-1,-7.903295E-2,-1.9652251E-2,8.147829E-2,2.1186514E-2,-3.0190412E-2,3.405152E-2,-3.3548642E-2,3.769315E-2,-9.972459E-2,-5.1741857E-2],"split_indices":[10,9,3,11,11,8,0,12,8,1,12,11,12,11,12,8,12,1,0,8,12,12,8,12,12,0,9,9,8,12,12,0,0,0,0,0,0,0,0,0,0,0,0,0,0,0,0,0,0,0,0,0,0,0,0,0,0,0,0],"split_type":[0,0,0,0,0,0,0,0,0,0,0,0,0,0,0,0,0,0,0,0,0,0,0,0,0,0,0,0,0,0,0,0,0,0,0,0,0,0,0,0,0,0,0,0,0,0,0,0,0,0,0,0,0,0,0,0,0,0,0],"sum_hessian":[2.3987045E2,1.0006556E2,1.3980489E2,2.741009E1,7.265547E1,1.2651096E1,1.2715379E2,9.600057E0,1.7810032E1,5.940054E1,1.32549305E1,8.317262E0,4.3338346E0,8.548607E0,1.1860519E2,6.1664505E0,3.4336061E0,1.6507627E1,1.3024054E0,7.3236723E0,5.207687E1,6.1042438E0,7.1506867E0,5.030756E0,3.2865057E0,1.3948509E0,2.9389837E0,4.5297217E0,4.0188856E0,7.5578865E1,4.3026318E1,2.5703826E0,3.596068E0,1.9809736E0,1.4526325E0,1.000092E0,1.5507535E1,5.0449257E0,2.2787466E0,2.5688377E1,2.6388493E1,2.2117987E0,3.892445E0,5.92585E0,1.2248367E0,3.5672293E0,1.4635268E0,2.0421844E0,1.2443213E0,1.779484E0,1.1594996E0,3.3362544E0,1.1934675E0,2.395796E0,1.6230893E0,6.50309E1,1.0547965E1,1.0704111E1,3.2322205E1],"tree_param":{"num_deleted":"0","num_feature":"13","num_nodes":"59","size_leaf_vector":"1"}},{"base_weights":[-4.1365948E-2,5.102493E-1,-1.2696521E-1,9.98328E-2,7.0576197E-1,5.912675E-1,-1.806946E-1,-1.2519631E-1,1.2335756E-1,-2.4014905E-2,7.6351565E-1,-3.6493275E-2,7.139474E-1,3.6474672E-1,-2.71638E-1,8.658497E-2,-7.823127E-2,1.4344935E-1,6.249994E-1,-1.2431669E-2,8.3803254E-1,6.9997996E-1,-1.3361199E-1,2.1460937E-1,-3.2814938E-1,-1.8723525E-2,3.0202119E-2,-1.4741699E-2,7.05582E-2,1.07139066E-1,3.5879202E-2,-3.47242E-2,8.052791E-2,-2.5482548E-2,4.716867E-2,5.6989696E-2,-2.6656628E-2,-4.628884E-3,-3.990651E-2],"categories":[],"categories_nodes":[],"categories_segments":[],"categories_sizes":[],"default_left":[0,0,0,0,0,0,0,0,0,0,0,0,0,0,0,0,0,0,0,0,0,0,0,0,0,0,0,0,0,0,0,0,0,0,0,0,0,0,0],"id":11,"left_children":[1,3,5,7,9,11,13,15,-1,-1,17,-1,19,21,23,25,-1,-1,27,-1,29,31,33,35,37,-1,-1,-1,-1,-1,-1,-1,-1,-1,-1,-1,-1,-1,-1],"loss_changes":[1.1419417E1,2.5376244E0,8.171052E0,3.1272407E0,1.3770485E0,1.9941745E0,9.781431E0,1.5471187E0,0E0,0E0,1.0396414E0,0E0,1.5017838E0,4.8250117E0,4.683262E0,5.839125E-1,0E0,0E0,1.2891159E0,0E0,9.389448E-1,2.1643715E0,1.0174547E0,3.2433236E0,2.9955235E0,0E0,0E0,0E0,0E0,0E0,0E0,0E0,0E0,0E0,0E0,0E0,0E0,0E0,0E0],"parents":[2147483647,0,0,1,1,2,2,3,3,4,4,5,5,6,6,7,7,10,10,12,12,13,13,14,14,15,15,18,18,20,20,21,21,22,22,23,23,24,24],"right_children":[2,4,6,8,10,12,14,16,-1,-1,18,-1,20,22,24,26,-1,-1,28,-1,30,32,34,36,38,-1,-1,-1,-1,-1,-1,-1,-1,-1,-1,-1,-1,-1,-1],"split_conditions":[1E0,1E0,1E0,1.1E1,1E0,1E0,1E0,8E0,1.2335756E-1,-2.4014905E-2,2E0,-3.6493275E-2,1E0,2E0,1E0,2E0,-7.823127E-2,1.4344935E-1,3E0,-1.2431669E-2,7E0,1E0,1.1E1,3E0,1E0,-1.8723525E-2,3.0202119E-2,-1.4741699E-2,7.05582E-2,1.07139066E-1,3.5879202E-2,-3.47242E-2,8.052791E-2,-2.5482548E-2,4.716867E-2,5.6989696E-2,-2.6656628E-2,-4.628884E-3,-3.990651E-2],"split_indices":[2,11,0,7,0,7,4,7,0,0,7,0,4,11,1,7,0,0,7,0,7,5,7,8,8,0,0,0,0,0,0,0,0,0,0,0,0,0,0],"split_type":[0,0,0,0,0,0,0,0,0,0,0,0,0,0,0,0,0,0,0,0,0,0,0,0,0,0,0,0,0,0,0,0,0,0,0,0,0,0,0],"sum_hessian":[2.3947331E2,3.1502872E1,2.0797044E2,1.0652328E1,2.0850544E1,1.3778639E1,1.941918E2,9.630422E0,1.0219061E0,1.0180691E0,1.9832476E1,1.3422337E0,1.2436405E1,2.732099E1,1.668708E2,7.93976E0,1.6906613E0,1.7926537E0,1.8039822E1,1.6033069E0,1.0833098E1,1.6091845E1,1.1229146E1,1.7083094E1,1.4978772E2,3.5537863E0,4.385974E0,1.6258644E0,1.6413958E1,6.4545593E0,4.378539E0,1.2602929E0,1.4831552E1,9.838046E0,1.3910996E0,9.720986E0,7.3621078E0,3.0442827E1,1.1934489E2],"tree_param":{"num_deleted":"0","num_feature":"13","num_nodes":"39","size_leaf_vector":"1"}},{"base_weights":[-5.890026E-2,2.5906357E-1,-1.7707248E-1,8.0822074E-1,1.7092961E-1,2.1032871E-1,-2.4738906E-1,-2.5050921E-2,1.0015167E0,3.5364023E-1,-1.066913E-1,4.5961964E-1,-1.3477299E-1,1.5907715E-1,-3.0026853E-1,1.3528287E-1,5.075358E-1,5.1143193E-1,-9.099544E-3,-5.008839E-1,1.4504136E-1,2.7517436E-2,6.629018E-1,-6.35261E-2,5.600194E-2,9.727801E-2,3.574092E-2,-3.6904675E-1,1.1127318E-1,-3.3304647E-2,9.264401E-2,1.2298456E-2,6.84058E-2,9.23604E-3,-3.8597316E-2,-9.046418E-3,-7.163241E-2,4.3000348E-2,-2.2494972E-2,-3.1023381E-2,1.920393E-2,3.4928367E-2,9.0584196E-2,2.81007E-2,-3.8955037E-2,-7.8933105E-2,1.8701507E-2,-1.8506123E-2,-4.9140196E-2,-1.4459376E-2,5.4240454E-2],"categories":[],"categories_nodes":[],"categories_segments":[],"categories_sizes":[],"default_left":[0,0,0,0,0,0,0,0,0,0,0,0,0,0,0,0,0,0,0,0,0,0,0,0,0,0,0,0,0,0,0,0,0,0,0,0,0,0,0,0,0,0,0,0,0,0,0,0,0,0,0],"id":12,"left_children":[1,3,5,7,9,11,13,-1,15,17,19,21,23,25,27,-1,29,31,33,35,37,39,41,-1,43,-1,45,47,49,-1,-1,-1,-1,-1,-1,-1,-1,-1,-1,-1,-1,-1,-1,-1,-1,-1,-1,-1,-1,-1,-1],"loss_changes":[8.946927E0,2.9880757E0,4.7728157E0,2.024074E0,2.9253464E0,2.3988295E0,3.2102509E0,0E0,6.1962605E-1,1.9830165E0,2.3910303E0,1.3869731E0,1.1971639E0,1.7307256E0,3.7361116E0,0E0,1.9736326E0,1.532196E0,4.738577E-1,7.601514E-1,1.681773E0,4.0195802E-1,5.092149E-1,0E0,1.0846324E0,0E0,2.183854E0,2.4322138E0,2.225236E0,0E0,0E0,0E0,0E0,0E0,0E0,0E0,0E0,0E0,0E0,0E0,0E0,0E0,0E0,0E0,0E0,0E0,0E0,0E0,0E0,0E0,0E0],"parents":[2147483647,0,0,1,1,2,2,3,3,4,4,5,5,6,6,8,8,9,9,10,10,11,11,12,12,13,13,14,14,16,16,17,17,18,18,19,19,20,20,21,21,22,22,24,24,26,26,27,27,28,28],"right_children":[2,4,6,8,10,12,14,-1,16,18,20,22,24,26,28,-1,30,32,34,36,38,40,42,-1,44,-1,46,48,50,-1,-1,-1,-1,-1,-1,-1,-1,-1,-1,-1,-1,-1,-1,-1,-1,-1,-1,-1,-1,-1,-1],"split_conditions":[1E0,1E0,1E0,1E0,7E0,2E0,1E0,-2.5050921E-2,1E0,4E0,9E0,2E0,4E0,1E0,1E1,1.3528287E-1,6E0,1E0,6E0,8E0,3E0,1E0,3E0,-6.35261E-2,3E0,9.727801E-2,1E0,1E0,3E0,-3.3304647E-2,9.264401E-2,1.2298456E-2,6.84058E-2,9.23604E-3,-3.8597316E-2,-9.046418E-3,-7.163241E-2,4.3000348E-2,-2.2494972E-2,-3.1023381E-2,1.920393E-2,3.4928367E-2,9.0584196E-2,2.81007E-2,-3.8955037E-2,-7.8933105E-2,1.8701507E-2,-1.8506123E-2,-4.9140196E-2,-1.4459376E-2,5.4240454E-2],"split_indices":[9,2,4,7,7,11,1,0,10,8,7,9,7,5,7,0,7,11,7,7,8,11,8,0,9,0,7,10,9,0,0,0,0,0,0,0,0,0,0,0,0,0,0,0,0,0,0,0,0,0,0],"split_type":[0,0,0,0,0,0,0,0,0,0,0,0,0,0,0,0,0,0,0,0,0,0,0,0,0,0,0,0,0,0,0,0,0,0,0,0,0,0,0,0,0,0,0,0,0,0,0,0,0,0,0],"sum_hessian":[2.358909E2,6.3592216E1,1.7229868E2,7.664547E0,5.592767E1,2.6163378E1,1.461353E2,1.1376066E0,6.5269403E0,3.3564224E1,2.2363443E1,1.4997677E1,1.1165702E1,1.6591776E1,1.2954353E2,2.7982442E0,3.7286959E0,2.3104055E1,1.046017E1,8.329846E0,1.4033598E1,5.1615376E0,9.83614E0,2.4385073E0,8.727194E0,1.2773459E0,1.5314429E1,1.11082344E2,1.8461187E1,1.3083303E0,2.4203658E0,7.6353154E0,1.546874E1,8.83625E0,1.623919E0,3.356163E0,4.9736834E0,7.8361225E0,6.197475E0,1.4005803E0,3.7609572E0,5.3575997E0,4.4785395E0,6.044176E0,2.683018E0,1.7192881E0,1.3595141E1,4.5370792E1,6.571155E1,1.2002554E1,6.458633E0],"tree_param":{"num_deleted":"0","num_feature":"13","num_nodes":"51","size_leaf_vector":"1"}},{"base_weights":[-3.1099128E-2,2.3536278E-1,-1.3384308E-1,-4.0300947E-1,3.080553E-1,4.0765274E-1,-2.061095E-1,2.9555649E-2,-6.778106E-1,4.0708444E-1,-2.1361788E-1,-8.048881E-3,7.2740436E-1,2.2926155E-1,-2.7594498E-1,-9.134492E-2,-1.4682852E-2,3.5089824E-1,1.270756E-1,1.7179342E-1,-7.727756E-1,2.9027626E-1,-4.855067E-1,8.8656205E-1,-3.0186376E-2,3.365005E-1,-7.371905E-2,7.975987E-2,-3.3888257E-1,7.999249E-2,2.835894E-2,-3.3151004E-2,3.666296E-2,-8.722654E-2,-2.3356436E-2,-3.97806E-2,1.09057166E-1,-7.164725E-2,-1.2069106E-2,1.2902002E-1,3.7383717E-2,-1.1543461E-2,5.9398036E-2,1.18493795E-1,-3.9531784E-3,-5.9964214E-3,-4.1349065E-2],"categories":[],"categories_nodes":[],"categories_segments":[],"categories_sizes":[],"default_left":[0,0,0,0,0,0,0,0,0,0,0,0,0,0,0,0,0,0,0,0,0,0,0,0,0,0,0,0,0,0,0,0,0,0,0,0,0,0,0,0,0,0,0,0,0,0,0],"id":13,"left_children":[1,3,5,7,9,11,13,-1,15,17,19,21,23,25,27,-1,-1,29,-1,31,33,35,37,39,-1,41,-1,43,45,-1,-1,-1,-1,-1,-1,-1,-1,-1,-1,-1,-1,-1,-1,-1,-1,-1,-1],"loss_changes":[6.5421605E0,3.2120097E0,6.8252926E0,1.5893683E0,3.2024097E0,2.7466223E0,4.7045097E0,0E0,5.536194E-1,2.0303288E0,2.3475654E0,1.5587202E0,2.1786532E0,2.4916248E0,2.982216E0,0E0,0E0,1.2629609E0,0E0,7.983601E-1,3.0987024E-2,4.151894E0,2.675764E-1,1.6612005E0,0E0,2.4158456E0,0E0,2.7699037E0,2.313137E0,0E0,0E0,0E0,0E0,0E0,0E0,0E0,0E0,0E0,0E0,0E0,0E0,0E0,0E0,0E0,0E0,0E0,0E0],"parents":[2147483647,0,0,1,1,2,2,3,3,4,4,5,5,6,6,8,8,9,9,10,10,11,11,12,12,13,13,14,14,17,17,19,19,20,20,21,21,22,22,23,23,25,25,27,27,28,28],"right_children":[2,4,6,8,10,12,14,-1,16,18,20,22,24,26,28,-1,-1,30,-1,32,34,36,38,40,-1,42,-1,44,46,-1,-1,-1,-1,-1,-1,-1,-1,-1,-1,-1,-1,-1,-1,-1,-1,-1,-1],"split_conditions":[1E0,4.1024685E0,1E0,5E0,9.100621E0,5E0,1E0,2.9555649E-2,9E0,8.919782E0,7E0,3E0,9.100621E0,9.195561E0,1E0,-9.134492E-2,-1.4682852E-2,1E0,1.270756E-1,9.547539E0,1.0258645E1,2E0,1E0,9E0,-3.0186376E-2,2E0,-7.371905E-2,2.5686896E0,1E0,7.999249E-2,2.835894E-2,-3.3151004E-2,3.666296E-2,-8.722654E-2,-2.3356436E-2,-3.97806E-2,1.09057166E-1,-7.164725E-2,-1.2069106E-2,1.2902002E-1,3.7383717E-2,-1.1543461E-2,5.9398036E-2,1.18493795E-1,-3.9531784E-3,-5.9964214E-3,-4.1349065E-2],"split_indices":[9,12,1,7,12,7,2,0,7,12,7,8,12,12,4,0,0,3,0,12,12,8,11,7,0,9,0,12,8,0,0,0,0,0,0,0,0,0,0,0,0,0,0,0,0,0,0],"split_type":[0,0,0,0,0,0,0,0,0,0,0,0,0,0,0,0,0,0,0,0,0,0,0,0,0,0,0,0,0,0,0,0,0,0,0,0,0,0,0,0,0,0,0,0,0,0,0],"sum_hessian":[2.3681189E2,6.554168E1,1.7127022E2,6.2358227E0,5.9305855E1,1.9619484E1,1.5165073E2,1.739175E0,4.496648E0,5.0028595E1,9.27726E0,8.953751E0,1.0665734E1,2.064735E1,1.3100337E2,2.615599E0,1.8810492E0,4.8293167E1,1.7354265E0,5.9019675E0,3.375292E0,5.7518916E0,3.2018585E0,9.357426E0,1.3083086E0,1.9171833E1,1.4755166E0,1.9654516E1,1.1134886E2,4.8765626E0,4.3416603E1,1.4513469E0,4.4506207E0,2.3280709E0,1.0472214E0,3.3631933E0,2.3886986E0,1.3703537E0,1.831505E0,4.387246E0,4.970179E0,7.158584E0,1.2013249E1,1.0445119E0,1.8610003E1,2.3879673E1,8.7469185E1],"tree_param":{"num_deleted":"0","num_feature":"13","num_nodes":"47","size_leaf_vector":"1"}},{"base_weights":[-1.06804825E-1,4.4140312E-1,-1.7056578E-1,7.801163E-1,1.5856735E-1,2.372539E-1,-2.3274447E-1,2.230536E-1,1.0815325E0,7.8486115E-1,-8.392722E-2,-5.7421726E-1,3.635694E-1,2.1647858E-2,-2.9807404E-1,6.518143E-2,-2.8828997E-2,1.4021597E0,4.7357988E-1,1.4346418E-2,9.743315E-1,4.3956423E-1,-7.037684E-1,2.5852634E-2,-9.182089E-2,4.4006905E-1,-6.931799E-2,-5.872068E-1,2.0365733E-1,-8.502162E-2,-3.808033E-1,2.5458803E-2,1.7415057E-1,-2.0297274E-3,7.51948E-2,1.1756911E-1,2.8444339E-2,-5.5770338E-2,9.373214E-2,-3.252926E-2,-8.823728E-2,2.6204316E-2,7.7923276E-2,-9.120075E-2,1.583845E-2,4.467161E-2,-2.592994E-2,-3.481504E-2,6.177367E-3,1.610183E-2,-4.3406717E-2],"categories":[],"categories_nodes":[],"categories_segments":[],"categories_sizes":[],"default_left":[0,0,0,0,0,0,0,0,0,0,0,0,0,0,0,0,0,0,0,0,0,0,0,0,0,0,0,0,0,0,0,0,0,0,0,0,0,0,0,0,0,0,0,0,0,0,0,0,0,0,0],"id":14,"left_children":[1,3,5,7,9,11,13,15,17,19,21,23,25,27,29,-1,-1,31,33,-1,35,37,39,-1,-1,41,-1,43,45,47,49,-1,-1,-1,-1,-1,-1,-1,-1,-1,-1,-1,-1,-1,-1,-1,-1,-1,-1,-1,-1],"loss_changes":[8.287958E0,2.2481794E0,5.4106665E0,1.6076407E0,2.3055902E0,3.1234481E0,3.0604334E0,1.3117437E0,6.781006E-1,3.721881E-1,4.0520773E0,1.4456042E0,2.343669E0,4.3838997E0,2.545907E0,0E0,0E0,1.1135187E0,5.497049E-1,0E0,9.337139E-2,3.932395E0,9.5956564E-2,0E0,0E0,1.2525969E0,0E0,2.351433E0,3.5329146E0,1.6515865E0,3.1024065E0,0E0,0E0,0E0,0E0,0E0,0E0,0E0,0E0,0E0,0E0,0E0,0E0,0E0,0E0,0E0,0E0,0E0,0E0,0E0,0E0],"parents":[2147483647,0,0,1,1,2,2,3,3,4,4,5,5,6,6,7,7,8,8,9,9,10,10,11,11,12,12,13,13,14,14,17,17,18,18,20,20,21,21,22,22,25,25,27,27,28,28,29,29,30,30],"right_children":[2,4,6,8,10,12,14,16,18,20,22,24,26,28,30,-1,-1,32,34,-1,36,38,40,-1,-1,42,-1,44,46,48,50,-1,-1,-1,-1,-1,-1,-1,-1,-1,-1,-1,-1,-1,-1,-1,-1,-1,-1,-1,-1],"split_conditions":[1E0,6.5255795E0,1E0,5.0368185E0,3E0,4.9043365E0,3E0,4.1024685E0,5.7046065E0,7.2094774E0,2E0,2.7413015E0,1.5E1,5.296403E0,1E0,6.518143E-2,-2.8828997E-2,5E0,2E0,1.4346418E-2,2E0,5E0,1E1,2.5852634E-2,-9.182089E-2,8.142679E0,-6.931799E-2,3E0,8.106804E0,2E0,1E0,2.5458803E-2,1.7415057E-1,-2.0297274E-3,7.51948E-2,1.1756911E-1,2.8444339E-2,-5.5770338E-2,9.373214E-2,-3.252926E-2,-8.823728E-2,2.6204316E-2,7.7923276E-2,-9.120075E-2,1.583845E-2,4.467161E-2,-2.592994E-2,-3.481504E-2,6.177367E-3,1.610183E-2,-4.3406717E-2],"split_indices":[3,12,2,12,6,12,6,12,12,12,11,12,6,12,9,0,0,6,9,0,9,6,6,0,0,12,0,9,12,8,5,0,0,0,0,0,0,0,0,0,0,0,0,0,0,0,0,0,0,0,0],"split_type":[0,0,0,0,0,0,0,0,0,0,0,0,0,0,0,0,0,0,0,0,0,0,0,0,0,0,0,0,0,0,0,0,0,0,0,0,0,0,0,0,0,0,0,0,0,0,0,0,0,0,0],"sum_hessian":[2.3395476E2,2.3758621E1,2.1019614E2,1.0011291E1,1.3747331E1,2.7435514E1,1.8276064E2,4.1259427E0,5.885348E0,3.2128496E0,1.0534481E1,3.217821E0,2.4217693E1,3.748055E1,1.4528008E2,2.0947716E0,2.031171E0,2.9979172E0,2.8874304E0,1.1333629E0,2.0794868E0,5.868792E0,4.6656885E0,1.0132852E0,2.2045357E0,2.3127056E1,1.0906382E0,8.113426E0,2.9367123E1,4.1201553E1,1.0407852E2,1.0836278E0,1.9142894E0,1.3750026E0,1.5124279E0,1.0645863E0,1.0149006E0,1.9138725E0,3.9549198E0,2.40039E0,2.2652986E0,1.632876E1,6.7982965E0,5.496009E0,2.617417E0,1.9279955E1,1.0087168E1,1.4263225E1,2.693833E1,9.134603E0,9.4943924E1],"tree_param":{"num_deleted":"0","num_feature":"13","num_nodes":"51","size_leaf_vector":"1"}},{"base_weights":[-4.3418143E-2,4.2947602E-1,-1.1871082E-1,-1.8951155E-1,6.442106E-1,4.984315E-1,-1.6827978E-1,-5.001264E-1,5.273699E-1,8.595825E-1,-4.1362993E-2,7.975726E-1,-4.825438E-1,7.381306E-2,-2.3866431E-1,-1.24114774E-1,-9.254089E-2,7.497871E-2,8.583541E-3,1.3277358E0,4.1219476E-1,-5.448894E-1,4.766392E-1,3.1946316E-1,1.1124984E0,2.4152784E-2,-8.327014E-2,1.963893E-1,-3.5918754E-1,-6.684697E-1,-1.9372985E-1,5.1610347E-2,-8.355874E-2,6.177303E-2,1.583609E-1,-1.7675487E-2,1.05340935E-1,1.7103147E-2,-8.763128E-2,1.0561215E-1,-3.6664065E-2,9.38667E-2,-4.260898E-2,1.2582739E-1,4.796287E-2,5.277283E-3,8.100403E-2,6.0158487E-2,-5.5866648E-2,1.3693082E-2,-8.285849E-2,-2.7798133E-3,-2.7219612E-2],"categories":[],"categories_nodes":[],"categories_segments":[],"categories_sizes":[],"default_left":[0,0,0,0,0,0,0,0,0,0,0,0,0,0,0,0,0,0,0,0,0,0,0,0,0,0,0,0,0,0,0,0,0,0,0,0,0,0,0,0,0,0,0,0,0,0,0,0,0,0,0,0,0],"id":15,"left_children":[1,3,5,7,9,11,13,15,17,19,21,23,25,27,29,31,-1,-1,-1,33,35,37,39,41,43,-1,-1,45,47,49,51,-1,-1,-1,-1,-1,-1,-1,-1,-1,-1,-1,-1,-1,-1,-1,-1,-1,-1,-1,-1,-1,-1],"loss_changes":[8.386188E0,4.424604E0,6.285589E0,2.2922847E0,3.6175985E0,4.8819895E0,3.2279477E0,9.836042E-1,2.5389254E-1,3.3288069E0,2.0211968E0,1.4696112E0,1.2670597E0,2.3634717E0,2.694128E0,2.6179488E0,0E0,0E0,0E0,5.8288E-1,4.3075266E0,1.0731437E0,2.2745755E0,3.2696471E0,3.3493042E-2,0E0,0E0,2.9815624E0,2.230569E0,1.8453679E0,1.7341619E0,0E0,0E0,0E0,0E0,0E0,0E0,0E0,0E0,0E0,0E0,0E0,0E0,0E0,0E0,0E0,0E0,0E0,0E0,0E0,0E0,0E0,0E0],"parents":[2147483647,0,0,1,1,2,2,3,3,4,4,5,5,6,6,7,7,8,8,9,9,10,10,11,11,12,12,13,13,14,14,15,15,19,19,20,20,21,21,22,22,23,23,24,24,27,27,28,28,29,29,30,30],"right_children":[2,4,6,8,10,12,14,16,18,20,22,24,26,28,30,32,-1,-1,-1,34,36,38,40,42,44,-1,-1,46,48,50,52,-1,-1,-1,-1,-1,-1,-1,-1,-1,-1,-1,-1,-1,-1,-1,-1,-1,-1,-1,-1,-1,-1],"split_conditions":[1E0,5.5952363E0,1E0,1.1E1,9E0,1E1,1E0,7E0,2E0,7.2241764E0,7.2241764E0,5E0,5.7298646E0,3E0,1E0,3E0,-9.254089E-2,7.497871E-2,8.583541E-3,1E0,8.472664E0,6.421641E0,8.472664E0,2E0,7.477698E0,2.4152784E-2,-8.327014E-2,1E1,2E0,5.4530797E0,5E0,5.1610347E-2,-8.355874E-2,6.177303E-2,1.583609E-1,-1.7675487E-2,1.05340935E-1,1.7103147E-2,-8.763128E-2,1.0561215E-1,-3.6664065E-2,9.38667E-2,-4.260898E-2,1.2582739E-1,4.796287E-2,5.277283E-3,8.100403E-2,6.0158487E-2,-5.5866648E-2,1.3693082E-2,-8.285849E-2,-2.7798133E-3,-2.7219612E-2],"split_indices":[2,12,0,6,7,6,8,6,9,12,12,6,12,11,7,8,0,0,0,11,12,12,12,8,12,0,0,7,6,12,6,0,0,0,0,0,0,0,0,0,0,0,0,0,0,0,0,0,0,0,0,0,0],"split_type":[0,0,0,0,0,0,0,0,0,0,0,0,0,0,0,0,0,0,0,0,0,0,0,0,0,0,0,0,0,0,0,0,0,0,0,0,0,0,0,0,0,0,0,0,0,0,0,0,0,0,0,0,0],"sum_hessian":[2.3309898E2,3.1369713E1,2.0172928E2,8.109878E0,2.3259834E1,1.4325014E1,1.8740425E2,5.8691945E0,2.2406828E0,1.7506409E1,5.753427E0,1.1120776E1,3.2042382E0,4.220124E1,1.4520302E2,3.8006804E0,2.068514E0,1.0258069E0,1.2148759E0,7.593111E0,9.913297E0,2.891158E0,2.862269E0,5.2161717E0,5.9046044E0,1.1455824E0,2.0586557E0,3.3316315E1,8.884925E0,1.2430147E1,1.3277287E2,2.1450534E0,1.6556269E0,2.9159741E0,4.6771364E0,5.5447965E0,4.3685007E0,1.0680248E0,1.8231335E0,1.5468868E0,1.3153821E0,2.7080417E0,2.50813E0,3.9959674E0,1.908637E0,2.7877882E1,5.438432E0,1.1809934E0,7.703931E0,2.0853508E0,1.0344796E1,4.3062786E1,8.971009E1],"tree_param":{"num_deleted":"0","num_feature":"13","num_nodes":"53","size_leaf_vector":"1"}},{"base_weights":[-4.786072E-2,2.0833257E-1,-1.447747E-1,8.4852815E-1,1.5675329E-1,-2.13639E-1,2.1392691E-1,-3.7067503E-2,1.4739867E-1,2.976349E-1,-5.8338992E-2,-9.978467E-2,-3.7067723E-1,1.0704662E0,3.0813403E-2,-2.8960507E-2,6.432466E-1,3.1404087E-1,-5.2502364E-1,1.2206025E-1,-2.3594855E-1,1.0891943E-1,-4.5274064E-1,-1.8493284E-2,1.5082512E0,8.4333114E-2,-7.6829456E-2,4.776753E-2,-3.370662E-2,4.5035137E-3,8.31876E-2,1.2665021E-1,1.1764772E-2,-7.2181836E-2,5.2367393E-3,-2.3132792E-2,2.6041498E-2,-6.2591866E-2,-8.036598E-3,3.164127E-2,-6.974139E-2,-3.272113E-2,-6.210124E-2,2.0565297E-2,2.0750426E-1,-2.9293189E-2,3.8454093E-2],"categories":[],"categories_nodes":[],"categories_segments":[],"categories_sizes":[],"default_left":[0,0,0,0,0,0,0,0,0,0,0,0,0,0,0,0,0,0,0,0,0,0,0,0,0,0,0,0,0,0,0,0,0,0,0,0,0,0,0,0,0,0,0,0,0,0,0],"id":16,"left_children":[1,3,5,7,9,11,13,-1,-1,15,17,19,21,23,25,27,29,31,33,35,37,39,41,-1,43,-1,45,-1,-1,-1,-1,-1,-1,-1,-1,-1,-1,-1,-1,-1,-1,-1,-1,-1,-1,-1,-1],"loss_changes":[5.7172327E0,1.956409E0,4.16537E0,3.9712572E0,1.8289857E0,2.4735699E0,4.258403E0,0E0,0E0,4.114625E0,4.422004E0,2.5290005E0,2.3575153E0,2.9111657E0,2.1263936E0,3.2227194E0,1.9568439E0,2.5166855E0,1.3156521E0,1.6316028E0,3.0821815E0,1.789184E0,8.587036E-1,0E0,2.2756672E0,0E0,2.2792468E0,0E0,0E0,0E0,0E0,0E0,0E0,0E0,0E0,0E0,0E0,0E0,0E0,0E0,0E0,0E0,0E0,0E0,0E0,0E0,0E0],"parents":[2147483647,0,0,1,1,2,2,3,3,4,4,5,5,6,6,9,9,10,10,11,11,12,12,13,13,14,14,15,15,16,16,17,17,18,18,19,19,20,20,21,21,22,22,24,24,26,26],"right_children":[2,4,6,8,10,12,14,-1,-1,16,18,20,22,24,26,28,30,32,34,36,38,40,42,-1,44,-1,46,-1,-1,-1,-1,-1,-1,-1,-1,-1,-1,-1,-1,-1,-1,-1,-1,-1,-1,-1,-1],"split_conditions":[1E0,1E0,1E1,5E0,2E0,9E0,2E0,-3.7067503E-2,1.4739867E-1,9E0,9E0,2E0,1E0,1E0,1E0,2E0,2E0,1E0,1.4E1,2E0,3E0,7E0,2E0,-1.8493284E-2,1E0,8.4333114E-2,3E0,4.776753E-2,-3.370662E-2,4.5035137E-3,8.31876E-2,1.2665021E-1,1.1764772E-2,-7.2181836E-2,5.2367393E-3,-2.3132792E-2,2.6041498E-2,-6.2591866E-2,-8.036598E-3,3.164127E-2,-6.974139E-2,-3.272113E-2,-6.210124E-2,2.0565297E-2,2.0750426E-1,-2.9293189E-2,3.8454093E-2],"split_indices":[9,6,7,7,11,6,6,0,0,6,6,8,4,11,5,7,7,3,6,6,8,7,11,0,6,0,9,0,0,0,0,0,0,0,0,0,0,0,0,0,0,0,0,0,0,0,0],"split_type":[0,0,0,0,0,0,0,0,0,0,0,0,0,0,0,0,0,0,0,0,0,0,0,0,0,0,0,0,0,0,0,0,0,0,0,0,0,0,0,0,0,0,0,0,0,0,0],"sum_hessian":[2.280522E2,6.227578E1,1.6577643E2,3.4912956E0,5.878448E1,1.3941554E2,2.636088E1,1.3218923E0,2.1694033E0,3.528783E1,2.3496653E1,8.176819E1,5.7647358E1,3.7894197E0,2.257146E1,1.861411E1,1.6673717E1,1.3250674E1,1.0245978E1,3.1138836E1,5.0629353E1,8.374962E0,4.9272396E1,1.1291175E0,2.6603022E0,1.8409485E0,2.073051E1,6.831055E0,1.1783056E1,4.294158E0,1.237956E1,1.3337047E0,1.191697E1,7.4549403E0,2.7910376E0,8.572024E0,2.2566813E1,1.3576525E1,3.705283E1,7.144152E0,1.2308099E0,2.9906752E1,1.9365644E1,1.2197993E0,1.440503E0,1.4366455E1,6.3640566E0],"tree_param":{"num_deleted":"0","num_feature":"13","num_nodes":"47","size_leaf_vector":"1"}},{"base_weights":[-4.9622517E-2,6.824855E-1,-1.0436701E-1,8.9793706E-1,-3.4318843E-1,3.5928056E-1,-1.6032885E-1,2.3051801E-1,1.0934817E0,2.6136864E-2,-7.358926E-2,8.242149E-1,6.140144E-3,1.9387606E-1,-2.2058916E-1,1.2152348E-1,-6.122917E-2,1.42968E-1,6.658416E-1,1.3267537E-2,1.0527718E0,1.1818589E-1,-2.611923E-1,5.4724616E-1,-1.0963133E-1,-1.4470237E-1,-4.4611433E-1,-2.6575897E-2,9.185909E-2,-6.704091E-2,7.014289E-2,1.1921839E-1,3.6034424E-2,3.8450856E-2,-4.6539173E-2,-7.3362202E-3,7.617888E-2,-6.497539E-2,1.1703937E-2,-1.970489E-2,5.4764222E-2,-2.1267913E-2,-8.010991E-2],"categories":[],"categories_nodes":[],"categories_segments":[],"categories_sizes":[],"default_left":[0,0,0,0,0,0,0,0,0,0,0,0,0,0,0,0,0,0,0,0,0,0,0,0,0,0,0,0,0,0,0,0,0,0,0,0,0,0,0,0,0,0,0],"id":17,"left_children":[1,3,5,7,9,11,13,15,17,-1,-1,19,21,23,25,-1,-1,-1,27,29,31,-1,33,35,37,39,41,-1,-1,-1,-1,-1,-1,-1,-1,-1,-1,-1,-1,-1,-1,-1,-1],"loss_changes":[9.235707E0,3.8530612E0,5.600296E0,1.5141678E0,1.0252256E0,3.8230166E0,4.1260567E0,4.3407626E0,5.1447296E-1,0E0,0E0,1.8500896E0,4.790172E0,3.1001687E0,2.7414799E0,0E0,0E0,0E0,1.741889E0,1.9870838E0,3.2655048E-1,0E0,1.8186343E0,1.8219838E0,2.0449924E0,4.607623E0,3.2105274E0,0E0,0E0,0E0,0E0,0E0,0E0,0E0,0E0,0E0,0E0,0E0,0E0,0E0,0E0,0E0,0E0],"parents":[2147483647,0,0,1,1,2,2,3,3,4,4,5,5,6,6,7,7,8,8,11,11,12,12,13,13,14,14,18,18,19,19,20,20,22,22,23,23,24,24,25,25,26,26],"right_children":[2,4,6,8,10,12,14,16,18,-1,-1,20,22,24,26,-1,-1,-1,28,30,32,-1,34,36,38,40,42,-1,-1,-1,-1,-1,-1,-1,-1,-1,-1,-1,-1,-1,-1,-1,-1],"split_conditions":[1E0,1.1E1,1E0,5.0368185E0,6.7020583E0,6.3551955E0,1E0,3.9764116E0,7.1212854E0,2.6136864E-2,-7.358926E-2,1E0,1E0,1E0,8.323439E0,1.2152348E-1,-6.122917E-2,1.42968E-1,7.645743E0,5.418697E0,1.1E1,1.1818589E-1,3E0,1E0,5.7954855E0,8.031159E0,2E0,-2.6575897E-2,9.185909E-2,-6.704091E-2,7.014289E-2,1.1921839E-1,3.6034424E-2,3.8450856E-2,-4.6539173E-2,-7.3362202E-3,7.617888E-2,-6.497539E-2,1.1703937E-2,-1.970489E-2,5.4764222E-2,-2.1267913E-2,-8.010991E-2],"split_indices":[0,6,3,12,12,12,2,12,12,0,0,11,1,10,12,0,0,0,12,12,6,0,6,11,12,12,11,0,0,0,0,0,0,0,0,0,0,0,0,0,0,0,0],"split_type":[0,0,0,0,0,0,0,0,0,0,0,0,0,0,0,0,0,0,0,0,0,0,0,0,0,0,0,0,0,0,0,0,0,0,0,0,0,0,0,0,0,0,0],"sum_hessian":[2.2766098E2,1.5041502E1,2.1261948E2,1.2533313E1,2.5081892E0,2.2315338E1,1.9030414E2,3.3337264E0,9.199587E0,1.1193777E0,1.3888115E0,9.057086E0,1.3258252E1,2.7346493E1,1.6295766E2,1.3336451E0,2.000081E0,3.8386033E0,5.3609834E0,2.2240262E0,6.83306E0,1.8224124E0,1.143584E1,1.2264272E1,1.5082221E1,1.2315795E2,3.9799698E1,1.13309E0,4.2278934E0,1.1285889E0,1.0954373E0,5.08709E0,1.7459694E0,2.5354536E0,8.900386E0,3.3196275E0,8.944645E0,3.9066784E0,1.1175543E1,1.15165924E2,7.9920297E0,2.4975273E1,1.4824423E1],"tree_param":{"num_deleted":"0","num_feature":"13","num_nodes":"43","size_leaf_vector":"1"}},{"base_weights":[-4.930387E-2,9.706477E-2,-1.5671822E-1,-3.2697374E-1,1.9346698E-1,-8.6226635E-2,-4.7928706E-1,1.2297781E-1,-7.685275E-1,8.0636984E-1,1.1431083E-1,2.727593E-1,-1.4920202E-1,-6.499252E-1,3.836422E-1,7.227537E-1,-1.3749047E-1,-9.1661584E-1,5.0744084E-3,3.551981E-1,1.5066452E-1,-3.8528273E-1,2.0223415E-1,-1.0543707E-1,6.8952143E-1,5.653019E-1,-1.881718E-1,-1.7321897E-1,-7.1617305E-1,-6.502186E-2,1.029662E0,9.10902E-2,1.7756324E-2,-8.98929E-2,3.41883E-2,-1.075232E-1,-3.593258E-2,3.0500274E-3,1.0719927E-1,5.7734054E-2,-6.7108646E-2,8.404444E-3,5.7870794E-2,2.103678E-2,-7.051528E-2,7.572833E-3,1.08834796E-1,-4.2547356E-2,1.2388585E-1,-1.4337763E-2,-5.8543336E-2,-6.8422675E-2,3.0772943E-2,-8.823658E-2,-5.4330397E-2,1.3689496E-1,2.287508E-2],"categories":[],"categories_nodes":[],"categories_segments":[],"categories_sizes":[],"default_left":[0,0,0,0,0,0,0,0,0,0,0,0,0,0,0,0,0,0,0,0,0,0,0,0,0,0,0,0,0,0,0,0,0,0,0,0,0,0,0,0,0,0,0,0,0,0,0,0,0,0,0,0,0,0,0,0,0],"id":18,"left_children":[1,3,5,7,9,11,13,15,17,19,21,23,25,27,29,31,33,35,-1,37,-1,39,41,43,45,47,49,51,53,-1,55,-1,-1,-1,-1,-1,-1,-1,-1,-1,-1,-1,-1,-1,-1,-1,-1,-1,-1,-1,-1,-1,-1,-1,-1,-1,-1],"loss_changes":[3.635201E0,4.0722237E0,2.9869192E0,3.7775187E0,3.8148973E0,2.5390928E0,3.733942E0,1.6683996E0,1.1983743E0,2.3228889E0,3.2619867E0,2.7280955E0,2.742257E0,5.116348E-1,3.698928E0,1.665901E-1,3.1700149E0,3.2903337E-1,0E0,1.5522765E0,0E0,3.4666328E0,2.7232053E0,1.9853667E0,1.9120646E0,3.9611669E0,1.5268662E0,1.1383433E0,1.9177437E-2,0E0,5.5058813E-1,0E0,0E0,0E0,0E0,0E0,0E0,0E0,0E0,0E0,0E0,0E0,0E0,0E0,0E0,0E0,0E0,0E0,0E0,0E0,0E0,0E0,0E0,0E0,0E0,0E0,0E0],"parents":[2147483647,0,0,1,1,2,2,3,3,4,4,5,5,6,6,7,7,8,8,9,9,10,10,11,11,12,12,13,13,14,14,15,15,16,16,17,17,19,19,21,21,22,22,23,23,24,24,25,25,26,26,27,27,28,28,30,30],"right_children":[2,4,6,8,10,12,14,16,18,20,22,24,26,28,30,32,34,36,-1,38,-1,40,42,44,46,48,50,52,54,-1,56,-1,-1,-1,-1,-1,-1,-1,-1,-1,-1,-1,-1,-1,-1,-1,-1,-1,-1,-1,-1,-1,-1,-1,-1,-1,-1],"split_conditions":[1E0,5.2717905E0,1.3E1,4.2204957E0,5.7822604E0,1E0,3E0,1E0,1E1,5.613884E0,6.3409967E0,7E0,3.46697E0,1E0,1.4E1,5E0,3.595613E0,1.1E1,5.0744084E-3,1.1E1,1.5066452E-1,1E0,4E0,5E0,7E0,2.7413015E0,9.594664E0,1E0,3E0,-6.502186E-2,7E0,9.10902E-2,1.7756324E-2,-8.98929E-2,3.41883E-2,-1.075232E-1,-3.593258E-2,3.0500274E-3,1.0719927E-1,5.7734054E-2,-6.7108646E-2,8.404444E-3,5.7870794E-2,2.103678E-2,-7.051528E-2,7.572833E-3,1.08834796E-1,-4.2547356E-2,1.2388585E-1,-1.4337763E-2,-5.8543336E-2,-6.8422675E-2,3.0772943E-2,-8.823658E-2,-5.4330397E-2,1.3689496E-1,2.287508E-2],"split_indices":[10,12,6,12,12,2,11,4,7,12,12,7,12,4,6,7,12,6,0,7,0,4,8,7,6,12,12,11,8,0,7,0,0,0,0,0,0,0,0,0,0,0,0,0,0,0,0,0,0,0,0,0,0,0,0,0,0],"split_type":[0,0,0,0,0,0,0,0,0,0,0,0,0,0,0,0,0,0,0,0,0,0,0,0,0,0,0,0,0,0,0,0,0,0,0,0,0,0,0,0,0,0,0,0,0,0,0,0,0,0,0,0,0,0,0,0,0],"sum_hessian":[2.2924857E2,9.707087E1,1.321777E2,1.7537586E1,7.953328E1,1.0951295E2,2.2664759E1,9.043539E0,8.494047E0,8.046041E0,7.148724E1,1.5847034E1,9.366591E1,1.9128979E1,3.5357807E0,2.2008514E0,6.842688E0,7.0931067E0,1.4009404E0,5.8100085E0,2.2360318E0,1.0192109E1,6.129513E1,8.699534E0,7.1475E0,4.1458755E0,8.9520035E1,2.775045E0,1.6353933E1,1.3572308E0,2.17855E0,1.1374985E0,1.063353E0,2.305464E0,4.537224E0,4.7980804E0,2.2950263E0,4.7161913E0,1.0938171E0,2.0997667E0,8.092342E0,4.7580887E1,1.3714244E1,6.123943E0,2.575592E0,3.2837284E0,3.8637717E0,1.8268977E0,2.3189776E0,8.1671844E1,7.8481865E0,1.1405494E0,1.6344954E0,6.24545E0,1.0108484E1,1.0320891E0,1.1464608E0],"tree_param":{"num_deleted":"0","num_feature":"13","num_nodes":"57","size_leaf_vector":"1"}},{"base_weights":[-3.176913E-3,1.5995282E-1,-1.2599343E-1,8.9476354E-2,4.7473767E-1,4.0100726E-1,-1.9130635E-1,3.9310905E-1,2.3918374E-2,9.4313455E-1,4.301519E-3,1.0055124E0,1.2196404E-1,1.8154582E-1,-2.537624E-1,5.714506E-1,-3.0418572E-1,-4.4696793E-1,8.928768E-2,1.3933827E0,2.598522E-1,-8.940282E-2,4.1079265E-1,1.2250165E-1,3.1841572E-2,9.5976345E-2,-1.2441227E-1,4.7057456E-1,-2.055443E-1,-2.954715E-1,2.2124022E-1,-3.3600807E-2,6.971069E-2,-5.7371616E-2,1.7357595E-2,-5.376327E-2,-5.249771E-3,4.289951E-2,-8.350449E-3,2.6376858E-2,1.6033567E-1,-3.0161936E-2,7.40233E-2,1.0631544E-2,1.0916581E-1,2.1340815E-2,-7.0539415E-2,-2.529197E-2,5.933196E-2,5.1914405E-2,-4.708621E-2,1.3994967E-2,-3.444934E-2,9.957619E-2,-6.1546117E-3],"categories":[],"categories_nodes":[],"categories_segments":[],"categories_sizes":[],"default_left":[0,0,0,0,0,0,0,0,0,0,0,0,0,0,0,0,0,0,0,0,0,0,0,0,0,0,0,0,0,0,0,0,0,0,0,0,0,0,0,0,0,0,0,0,0,0,0,0,0,0,0,0,0,0,0],"id":19,"left_children":[1,3,5,7,9,11,13,15,17,19,21,23,25,27,29,31,33,35,37,39,41,-1,43,-1,-1,-1,45,47,49,51,53,-1,-1,-1,-1,-1,-1,-1,-1,-1,-1,-1,-1,-1,-1,-1,-1,-1,-1,-1,-1,-1,-1,-1,-1],"loss_changes":[4.585011E0,2.138337E0,4.5699735E0,1.6139231E0,3.9072213E0,2.3599637E0,2.7665505E0,1.9666107E0,2.1372051E0,2.3728456E0,3.9679205E0,2.9014778E-1,2.4327846E0,2.037221E0,2.0560784E0,1.5829146E0,5.617212E-1,2.7477717E-1,3.5966568E0,7.937393E-1,1.507231E0,0E0,1.433313E0,0E0,0E0,0E0,2.024077E0,1.0588956E0,1.8038586E0,2.0289936E0,1.9629899E0,0E0,0E0,0E0,0E0,0E0,0E0,0E0,0E0,0E0,0E0,0E0,0E0,0E0,0E0,0E0,0E0,0E0,0E0,0E0,0E0,0E0,0E0,0E0,0E0],"parents":[2147483647,0,0,1,1,2,2,3,3,4,4,5,5,6,6,7,7,8,8,9,9,10,10,11,11,12,12,13,13,14,14,15,15,16,16,17,17,18,18,19,19,20,20,22,22,26,26,27,27,28,28,29,29,30,30],"right_children":[2,4,6,8,10,12,14,16,18,20,22,24,26,28,30,32,34,36,38,40,42,-1,44,-1,-1,-1,46,48,50,52,54,-1,-1,-1,-1,-1,-1,-1,-1,-1,-1,-1,-1,-1,-1,-1,-1,-1,-1,-1,-1,-1,-1,-1,-1],"split_conditions":[1E0,1E1,1E0,1E0,8E0,2E0,1E0,8E0,1E0,1.1E1,1.1E1,5E0,2E0,4E0,1.1E1,1E0,2E0,4E0,4E0,1E0,3E0,-8.940282E-2,4E0,1.2250165E-1,3.1841572E-2,9.5976345E-2,1.1E1,1E0,1E0,1E0,2E0,-3.3600807E-2,6.971069E-2,-5.7371616E-2,1.7357595E-2,-5.376327E-2,-5.249771E-3,4.289951E-2,-8.350449E-3,2.6376858E-2,1.6033567E-1,-3.0161936E-2,7.40233E-2,1.0631544E-2,1.0916581E-1,2.1340815E-2,-7.0539415E-2,-2.529197E-2,5.933196E-2,5.1914405E-2,-4.708621E-2,1.3994967E-2,-3.444934E-2,9.957619E-2,-6.1546117E-3],"split_indices":[10,7,3,4,6,8,2,7,7,7,6,6,7,8,7,6,8,8,7,4,6,0,8,0,0,0,6,7,9,1,6,0,0,0,0,0,0,0,0,0,0,0,0,0,0,0,0,0,0,0,0,0,0,0,0],"split_type":[0,0,0,0,0,0,0,0,0,0,0,0,0,0,0,0,0,0,0,0,0,0,0,0,0,0,0,0,0,0,0,0,0,0,0,0,0,0,0,0,0,0,0,0,0,0,0,0,0,0,0,0,0,0,0],"sum_hessian":[2.2684389E2,9.730164E1,1.2954224E2,8.0551414E1,1.6750229E1,1.3717544E1,1.158247E2,1.3416473E1,6.713494E1,7.8898106E0,8.860418E0,3.5100725E0,1.0207472E1,1.6344423E1,9.948028E1,1.0827647E1,2.5888262E0,7.47212E0,5.966282E1,4.1294594E0,3.7603512E0,2.3866453E0,6.473773E0,2.0668843E0,1.443188E0,1.6616237E0,8.545848E0,9.233997E0,7.110425E0,9.179765E1,7.682625E0,1.1133413E0,9.714306E0,1.5266954E0,1.0621307E0,5.7805896E0,1.6915303E0,1.9615753E1,4.004707E1,1.000921E0,3.1285381E0,1.9054157E0,1.8549355E0,5.272226E0,1.2015469E0,5.803813E0,2.742035E0,1.1855427E0,8.048455E0,1.6491777E0,5.4612474E0,9.101516E0,8.269614E1,1.3804549E0,6.3021703E0],"tree_param":{"num_deleted":"0","num_feature":"13","num_nodes":"55","size_leaf_vector":"1"}},{"base_weights":[-1.602764E-2,5.4525554E-1,-6.0217146E-2,7.3603636E-1,-3.5698083E-1,5.351416E-2,-2.2492462E-1,5.066414E-1,1.3113945E0,2.7676333E-2,-7.4139655E-2,-4.6549466E-2,4.5601717E-1,-5.863222E-1,-7.680176E-2,7.0251673E-1,-7.629355E-2,1.6660158E-1,2.8104538E-2,4.6724275E-1,-1.1294482E-1,6.712276E-1,-2.8836295E-1,-4.1736388E-1,-1.03181206E-1,1.0280286E-1,-3.6152908E-1,1.0350958E-1,3.2731663E-2,-2.271222E-2,8.8285945E-2,4.1567586E-2,-1.9356983E-2,-3.1011954E-2,8.074599E-2,6.71376E-2,-6.1537772E-2,-5.3743936E-2,4.217967E-2,1.6731063E-2,-8.1290945E-2,1.5940068E-2,-5.231299E-2],"categories":[],"categories_nodes":[],"categories_segments":[],"categories_sizes":[],"default_left":[0,0,0,0,0,0,0,0,0,0,0,0,0,0,0,0,0,0,0,0,0,0,0,0,0,0,0,0,0,0,0,0,0,0,0,0,0,0,0,0,0,0,0],"id":20,"left_children":[1,3,5,7,9,11,13,15,17,-1,-1,19,21,23,25,27,-1,-1,-1,29,31,33,35,37,-1,39,41,-1,-1,-1,-1,-1,-1,-1,-1,-1,-1,-1,-1,-1,-1,-1,-1],"loss_changes":[5.689341E0,3.1448846E0,3.9892054E0,1.2029071E0,1.0812485E0,5.11212E0,4.6076117E0,3.4566276E0,7.752962E-1,0E0,0E0,3.5371456E0,4.240106E0,1.4598379E0,3.2485676E0,9.958172E-1,0E0,0E0,0E0,3.6299534E0,3.9698565E0,2.910204E0,2.4106555E0,2.2307684E0,0E0,2.4566772E0,2.1468658E0,0E0,0E0,0E0,0E0,0E0,0E0,0E0,0E0,0E0,0E0,0E0,0E0,0E0,0E0,0E0,0E0],"parents":[2147483647,0,0,1,1,2,2,3,3,4,4,5,5,6,6,7,7,8,8,11,11,12,12,13,13,14,14,15,15,19,19,20,20,21,21,22,22,23,23,25,25,26,26],"right_children":[2,4,6,8,10,12,14,16,18,-1,-1,20,22,24,26,28,-1,-1,-1,30,32,34,36,38,-1,40,42,-1,-1,-1,-1,-1,-1,-1,-1,-1,-1,-1,-1,-1,-1,-1,-1],"split_conditions":[1E0,1.1E1,7.3536153E0,8.622791E0,6.3734674E0,6.8467627E0,8.042881E0,7.7573752E0,2E0,2.7676333E-2,-7.4139655E-2,1E0,1.3E1,1.2E1,2E0,2E0,-7.629355E-2,1.6660158E-1,2.8104538E-2,6E0,1E0,1E0,1E0,1.1E1,-1.03181206E-1,1.1172108E1,3E0,1.0350958E-1,3.2731663E-2,-2.271222E-2,8.8285945E-2,4.1567586E-2,-1.9356983E-2,-3.1011954E-2,8.074599E-2,6.71376E-2,-6.1537772E-2,-5.3743936E-2,4.217967E-2,1.6731063E-2,-8.1290945E-2,1.5940068E-2,-5.231299E-2],"split_indices":[0,6,12,12,12,12,12,12,11,0,0,3,6,6,11,8,0,0,0,6,2,3,5,6,0,12,6,0,0,0,0,0,0,0,0,0,0,0,0,0,0,0,0],"split_type":[0,0,0,0,0,0,0,0,0,0,0,0,0,0,0,0,0,0,0,0,0,0,0,0,0,0,0,0,0,0,0,0,0,0,0,0,0,0,0,0,0,0,0],"sum_hessian":[2.2705898E2,1.5743992E1,2.1131497E2,1.3148011E1,2.5959806E0,1.2540046E2,8.591452E1,1.0744679E1,2.4033318E0,1.085869E0,1.5101118E0,1.0114085E2,2.4259611E1,2.4116217E1,6.1798306E1,9.695477E0,1.0492034E0,1.3289843E0,1.0743474E0,1.0883437E1,9.025741E1,1.8895063E1,5.3645473E0,1.8889116E1,5.2270994E0,3.828638E1,2.3511923E1,4.207312E0,5.4881644E0,4.244964E0,6.638473E0,1.13943405E1,7.886307E1,2.1477053E0,1.6747358E1,1.0957224E0,4.2688246E0,1.6839155E1,2.0499625E0,3.6530277E1,1.7561033E0,5.5700736E0,1.7941849E1],"tree_param":{"num_deleted":"0","num_feature":"13","num_nodes":"43","size_leaf_vector":"1"}},{"base_weights":[-3.6916826E-2,2.2501892E-1,-1.1149E-1,3.545432E-1,-1.8995328E-1,1.1084625E-1,-1.6972406E-1,4.727384E-2,6.9274557E-1,3.69849E-1,-4.3643636E-1,-5.01093E-1,3.6589077E-1,-6.115101E-3,-4.0217698E-1,-5.5925196E-1,3.0549914E-1,9.663577E-1,-6.0648425E-4,6.7346886E-2,-2.8693125E-2,3.5960928E-2,-6.962713E-1,1.212466E-1,-8.9269865E-1,5.495429E-1,-4.8015383E-1,-3.2956874E-1,1.298848E-1,4.5947963E-1,-4.825522E-1,-9.3209945E-2,-1.4477533E-2,-9.781211E-3,8.631066E-2,1.1317064E-1,1.4814337E-2,-6.795017E-2,7.537387E-2,-1.0430052E-1,8.743565E-3,-3.748959E-2,7.7309296E-2,-1.1590462E-2,-1.01498105E-1,6.758012E-2,-3.1226212E-2,-1.5482473E-3,-8.241504E-2,6.3530885E-2,-4.9338505E-2,-2.260203E-4,4.633913E-2,-2.761876E-2,1.1129427E-1,-6.755283E-2,-1.9543383E-2],"categories":[],"categories_nodes":[],"categories_segments":[],"categories_sizes":[],"default_left":[0,0,0,0,0,0,0,0,0,0,0,0,0,0,0,0,0,0,0,0,0,0,0,0,0,0,0,0,0,0,0,0,0,0,0,0,0,0,0,0,0,0,0,0,0,0,0,0,0,0,0,0,0,0,0,0,0],"id":21,"left_children":[1,3,5,7,9,11,13,15,17,19,21,23,25,27,29,31,33,35,37,-1,-1,-1,39,41,43,45,47,49,51,53,55,-1,-1,-1,-1,-1,-1,-1,-1,-1,-1,-1,-1,-1,-1,-1,-1,-1,-1,-1,-1,-1,-1,-1,-1,-1,-1],"loss_changes":[4.390537E0,2.7471533E0,2.2798278E0,3.9521937E0,1.8877426E0,5.9346194E0,5.275485E0,3.485775E0,3.44973E0,1.0638725E0,2.1419945E0,2.8530195E0,4.395019E0,3.6704617E0,4.1909523E0,8.9635706E-1,3.5683727E0,1.5961676E0,3.6586E0,0E0,0E0,0E0,2.0573094E0,1.9813175E0,5.503378E-1,2.6387963E0,8.3054745E-1,4.216487E0,2.5912511E0,2.9043965E0,2.7995787E0,0E0,0E0,0E0,0E0,0E0,0E0,0E0,0E0,0E0,0E0,0E0,0E0,0E0,0E0,0E0,0E0,0E0,0E0,0E0,0E0,0E0,0E0,0E0,0E0,0E0,0E0],"parents":[2147483647,0,0,1,1,2,2,3,3,4,4,5,5,6,6,7,7,8,8,9,9,10,10,11,11,12,12,13,13,14,14,15,15,16,16,17,17,18,18,22,22,23,23,24,24,25,25,26,26,27,27,28,28,29,29,30,30],"right_children":[2,4,6,8,10,12,14,16,18,20,22,24,26,28,30,32,34,36,38,-1,-1,-1,40,42,44,46,48,50,52,54,56,-1,-1,-1,-1,-1,-1,-1,-1,-1,-1,-1,-1,-1,-1,-1,-1,-1,-1,-1,-1,-1,-1,-1,-1,-1,-1],"split_conditions":[1E0,8.562466E0,3E0,2E0,3E0,1E0,2E0,5.2717905E0,2E0,9E0,3E0,3E0,5E0,2E0,4.1609654E0,6E0,2E0,7.735498E0,7E0,6.7346886E-2,-2.8693125E-2,3.5960928E-2,1.1E1,2E0,5.0612774E0,9.100621E0,2E0,1E0,8.031159E0,2E0,4E0,-9.3209945E-2,-1.4477533E-2,-9.781211E-3,8.631066E-2,1.1317064E-1,1.4814337E-2,-6.795017E-2,7.537387E-2,-1.0430052E-1,8.743565E-3,-3.748959E-2,7.7309296E-2,-1.1590462E-2,-1.01498105E-1,6.758012E-2,-3.1226212E-2,-1.5482473E-3,-8.241504E-2,6.3530885E-2,-4.9338505E-2,-2.260203E-4,4.633913E-2,-2.761876E-2,1.1129427E-1,-6.755283E-2,-1.9543383E-2],"split_indices":[8,12,6,9,7,11,11,12,11,6,6,7,8,7,12,7,11,12,7,0,0,0,6,9,12,12,9,3,12,9,8,0,0,0,0,0,0,0,0,0,0,0,0,0,0,0,0,0,0,0,0,0,0,0,0,0,0],"split_type":[0,0,0,0,0,0,0,0,0,0,0,0,0,0,0,0,0,0,0,0,0,0,0,0,0,0,0,0,0,0,0,0,0,0,0,0,0,0,0,0,0,0,0,0,0,0,0,0,0,0,0,0,0,0,0,0,0],"sum_hessian":[2.2248665E2,4.885781E1,1.7362885E2,3.7346542E1,1.1511267E1,3.5850197E1,1.3777864E2,2.0165352E1,1.718119E1,3.3660126E0,8.145254E0,1.0262417E1,2.558778E1,8.1466095E1,5.6312546E1,5.673514E0,1.4491838E1,1.203727E1,5.1439214E0,2.2845082E0,1.0815043E0,1.90992E0,6.2353344E0,4.2301893E0,6.0322275E0,2.1312008E1,4.2757726E0,2.3692955E1,5.7773144E1,4.4022183E0,5.1910328E1,2.3293023E0,3.3442116E0,8.887903E0,5.603935E0,9.694929E0,2.3423398E0,2.759576E0,2.3843455E0,4.0934267E0,2.1419077E0,2.643217E0,1.586972E0,1.0853602E0,4.9468675E0,1.8776936E1,2.5350733E0,2.2633886E0,2.012384E0,3.0210145E0,2.0671942E1,4.208934E1,1.5683802E1,2.3424456E0,2.0597725E0,3.0235722E1,2.1674606E1],"tree_param":{"num_deleted":"0","num_feature":"13","num_nodes":"57","size_leaf_vector":"1"}},{"base_weights":[7.7626454E-3,2.4178761E-1,-8.318945E-2,3.1218433E-1,-2.0384295E-1,4.265682E-2,-2.6951975E-1,-1.0332963E-1,4.263491E-1,6.086476E-1,-5.997389E-1,-2.2529227E-1,1.791213E-1,3.6033666E-1,-3.6106426E-1,5.1688254E-1,-2.8684306E-1,8.4112144E-1,3.3449373E-1,1.5988499E-2,7.6933995E-2,-7.769115E-2,-1.0209679E-2,2.7652907E-1,-3.862659E-1,7.038112E-1,5.4156557E-2,7.014317E-1,-7.4526116E-2,-7.9873604E-1,-2.6704597E-1,1.0070915E-2,6.869217E-2,-7.7278696E-2,1.1614381E-2,1.11693166E-1,5.840928E-3,-1.1893372E-2,4.9061626E-2,-3.2412436E-2,7.250771E-2,5.1728655E-2,-4.9388245E-2,-3.9781515E-2,8.739477E-2,-1.0681415E-2,7.150337E-2,1.06926695E-1,-1.8640248E-2,-1.2595484E-2,-8.625091E-2,8.679371E-2,-3.198276E-2],"categories":[],"categories_nodes":[],"categories_segments":[],"categories_sizes":[],"default_left":[0,0,0,0,0,0,0,0,0,0,0,0,0,0,0,0,0,0,0,0,0,0,0,0,0,0,0,0,0,0,0,0,0,0,0,0,0,0,0,0,0,0,0,0,0,0,0,0,0,0,0,0,0],"id":22,"left_children":[1,3,5,7,9,11,13,15,17,19,21,23,25,27,29,31,33,35,37,-1,-1,-1,-1,39,41,43,45,47,-1,49,51,-1,-1,-1,-1,-1,-1,-1,-1,-1,-1,-1,-1,-1,-1,-1,-1,-1,-1,-1,-1,-1,-1],"loss_changes":[4.775515E0,2.0332181E0,3.8015842E0,2.6347675E0,3.3146527E0,3.5995336E0,3.894969E0,1.5796453E0,1.3583412E0,1.2943232E-1,5.0870657E-1,2.7958274E0,4.2269917E0,3.8361633E0,2.1531096E0,1.5927958E-1,2.1161444E0,1.476747E0,2.6701403E0,0E0,0E0,0E0,0E0,2.5702293E0,2.7467544E0,2.677226E0,5.7805414E0,2.5603998E0,0E0,3.0612183E-1,3.2034836E0,0E0,0E0,0E0,0E0,0E0,0E0,0E0,0E0,0E0,0E0,0E0,0E0,0E0,0E0,0E0,0E0,0E0,0E0,0E0,0E0,0E0,0E0],"parents":[2147483647,0,0,1,1,2,2,3,3,4,4,5,5,6,6,7,7,8,8,9,9,10,10,11,11,12,12,13,13,14,14,15,15,16,16,17,17,18,18,23,23,24,24,25,25,26,26,27,27,29,29,30,30],"right_children":[2,4,6,8,10,12,14,16,18,20,22,24,26,28,30,32,34,36,38,-1,-1,-1,-1,40,42,44,46,48,-1,50,52,-1,-1,-1,-1,-1,-1,-1,-1,-1,-1,-1,-1,-1,-1,-1,-1,-1,-1,-1,-1,-1,-1],"split_conditions":[1E0,9.100621E0,7.3536153E0,5.2371116E0,3E0,2E0,1E0,1E0,5.7822604E0,9.729589E0,1.2E1,3E0,1E0,4E0,7.6819963E0,2E0,1E0,1.2E1,6.4703355E0,1.5988499E-2,7.6933995E-2,-7.769115E-2,-1.0209679E-2,5.9711204E0,1E0,2E0,6.856613E0,1.1E1,-7.4526116E-2,1E0,7.7573752E0,1.0070915E-2,6.869217E-2,-7.7278696E-2,1.1614381E-2,1.11693166E-1,5.840928E-3,-1.1893372E-2,4.9061626E-2,-3.2412436E-2,7.250771E-2,5.1728655E-2,-4.9388245E-2,-3.9781515E-2,8.739477E-2,-1.0681415E-2,7.150337E-2,1.06926695E-1,-1.8640248E-2,-1.2595484E-2,-8.625091E-2,8.679371E-2,-3.198276E-2],"split_indices":[9,12,12,12,6,9,1,4,12,12,6,6,4,8,12,8,11,6,12,0,0,0,0,12,0,6,12,6,0,3,12,0,0,0,0,0,0,0,0,0,0,0,0,0,0,0,0,0,0,0,0,0,0],"split_type":[0,0,0,0,0,0,0,0,0,0,0,0,0,0,0,0,0,0,0,0,0,0,0,0,0,0,0,0,0,0,0,0,0,0,0,0,0,0,0,0,0,0,0,0,0,0,0,0,0,0,0,0,0],"sum_hessian":[2.2241495E2,6.1783653E1,1.606313E2,5.3613697E1,8.169954E0,9.633699E1,6.429431E1,1.1576133E1,4.2037563E1,2.5006073E0,5.669347E0,3.228811E1,6.404888E1,7.7862396E0,5.650807E1,2.2283812E0,9.347752E0,6.142796E0,3.5894768E1,1.1853306E0,1.3152766E0,3.7670135E0,1.902333E0,7.667498E0,2.4620611E1,1.1429157E1,5.261972E1,6.229806E0,1.5564338E0,8.666843E0,4.784123E1,1.1082337E0,1.1201476E0,3.821694E0,5.526058E0,4.2264786E0,1.9163177E0,9.254649E0,2.664012E1,3.3965497E0,4.2709484E0,2.2151735E0,2.2405437E1,1.3499664E0,1.0079191E1,4.298756E1,9.632161E0,4.260359E0,1.9694473E0,1.007989E0,7.6588545E0,1.4396629E0,4.6401566E1],"tree_param":{"num_deleted":"0","num_feature":"13","num_nodes":"53","size_leaf_vector":"1"}},{"base_weights":[-8.9112E-2,4.557384E-2,-2.844919E-1,5.5202985E-1,-1.9458245E-2,1.03311665E-1,-4.315036E-1,6.754955E-1,-3.968543E-2,-5.015842E-2,1.2042441E-1,3.711871E-1,-2.1954086E-1,-5.2870566E-1,2.9886598E-2,-3.8184214E-3,7.9372364E-1,1.9674055E-1,-2.0805945E-1,-3.2898572E-1,5.407161E-1,3.3296087E-1,-4.6866703E-1,1.363561E-1,-6.335678E-1,-6.8219185E-1,3.1617576E-1,1.10782705E-1,2.3964047E-2,-4.399345E-3,5.98404E-2,1.3093298E-3,-4.569251E-2,1.4515126E-3,-4.983556E-2,6.65031E-2,-3.444853E-2,-1.5304369E-2,7.386453E-2,1.8632766E-2,-6.01663E-2,8.271426E-2,-4.48584E-2,-6.3623725E-3,-7.2308555E-2,-1.8055461E-2,-7.9885684E-2,1.1991955E-1,-2.9243315E-2],"categories":[],"categories_nodes":[],"categories_segments":[],"categories_sizes":[],"default_left":[0,0,0,0,0,0,0,0,0,0,0,0,0,0,0,0,0,0,0,0,0,0,0,0,0,0,0,0,0,0,0,0,0,0,0,0,0,0,0,0,0,0,0,0,0,0,0,0,0],"id":23,"left_children":[1,3,5,7,9,11,13,15,-1,17,-1,19,21,23,25,-1,27,29,31,33,35,37,39,41,43,45,47,-1,-1,-1,-1,-1,-1,-1,-1,-1,-1,-1,-1,-1,-1,-1,-1,-1,-1,-1,-1,-1,-1],"loss_changes":[5.8377423E0,4.3545814E0,5.2019205E0,2.0303278E0,4.487613E0,2.3018079E0,2.9662733E0,1.1846118E0,0E0,4.5602026E0,0E0,1.8874995E0,1.8449559E0,3.8797932E0,2.742431E0,0E0,1.7850552E0,4.448307E0,3.92408E0,2.0674235E-1,1.5467131E0,9.801611E-1,8.8498795E-1,3.6970162E0,2.3602276E0,8.230102E-2,5.4687777E0,0E0,0E0,0E0,0E0,0E0,0E0,0E0,0E0,0E0,0E0,0E0,0E0,0E0,0E0,0E0,0E0,0E0,0E0,0E0,0E0,0E0,0E0],"parents":[2147483647,0,0,1,1,2,2,3,3,4,4,5,5,6,6,7,7,9,9,11,11,12,12,13,13,14,14,16,16,17,17,18,18,19,19,20,20,21,21,22,22,23,23,24,24,25,25,26,26],"right_children":[2,4,6,8,10,12,14,16,-1,18,-1,20,22,24,26,-1,28,30,32,34,36,38,40,42,44,46,48,-1,-1,-1,-1,-1,-1,-1,-1,-1,-1,-1,-1,-1,-1,-1,-1,-1,-1,-1,-1,-1,-1],"split_conditions":[7.316446E0,1E0,1E0,7.0260797E0,7.270575E0,1E0,1E1,1E0,-3.968543E-2,6E0,1.2042441E-1,1E0,4E0,1E0,7.9050155E0,-3.8184214E-3,5.7046065E0,6.308653E0,5.859516E0,4E0,1.0347836E1,8.073287E0,1E0,6E0,1E0,7.3765097E0,8.504178E0,1.10782705E-1,2.3964047E-2,-4.399345E-3,5.98404E-2,1.3093298E-3,-4.569251E-2,1.4515126E-3,-4.983556E-2,6.65031E-2,-3.444853E-2,-1.5304369E-2,7.386453E-2,1.8632766E-2,-6.01663E-2,8.271426E-2,-4.48584E-2,-6.3623725E-3,-7.2308555E-2,-1.8055461E-2,-7.9885684E-2,1.1991955E-1,-2.9243315E-2],"split_indices":[12,3,9,12,12,10,7,2,0,6,0,4,6,1,12,0,12,12,12,6,12,12,7,6,4,12,12,0,0,0,0,0,0,0,0,0,0,0,0,0,0,0,0,0,0,0,0,0,0],"split_type":[0,0,0,0,0,0,0,0,0,0,0,0,0,0,0,0,0,0,0,0,0,0,0,0,0,0,0,0,0,0,0,0,0,0,0,0,0,0,0,0,0,0,0,0,0,0,0,0,0],"sum_hessian":[2.2034894E2,1.3088774E2,8.94612E1,1.4042123E1,1.1684563E2,2.467308E1,6.478812E1,1.2680318E1,1.3618056E0,1.1492149E2,1.9241328E0,1.340284E1,1.1270241E1,5.3393658E1,1.1394457E1,1.8983037E0,1.0782014E1,4.4731674E1,7.018982E1,2.4292388E0,1.09736E1,3.3979318E0,7.8723087E0,7.231208E0,4.616245E1,2.8708932E0,8.523564E0,6.2433443E0,4.5386696E0,2.8525562E1,1.6206112E1,3.7665775E1,3.252404E1,1.1041665E0,1.3250724E0,9.840373E0,1.1332275E0,1.8292575E0,1.5686744E0,1.2609969E0,6.611312E0,3.1257644E0,4.1054435E0,6.498476E0,3.966397E1,1.0224004E0,1.8484929E0,3.0818195E0,5.4417443E0],"tree_param":{"num_deleted":"0","num_feature":"13","num_nodes":"49","size_leaf_vector":"1"}},{"base_weights":[5.0541633E-3,-3.2866308E-1,3.9824493E-2,-4.9222258E-1,2.6188275E-1,9.4298735E-2,-2.3216319E-1,2.9865209E-2,-5.613728E-1,9.42226E-2,-3.3052173E-1,4.3759522E-1,5.634497E-2,-1.0422985E-1,-9.601139E-2,-6.45001E-1,2.4738044E-2,-6.680798E-2,1.3895568E-2,7.7104324E-1,-1.6916694E-1,1.6112827E-1,-1.06587775E-1,-2.575724E-1,1.1964518E0,-1.0042655E-2,-7.849117E-2,-3.9565124E-2,1.0915983E-1,7.078595E-2,-4.913625E-2,5.7057696E-3,8.901164E-2,-2.1028744E-2,3.2724366E-2,1.6732145E-3,-4.7684237E-2,2.9138407E-2,1.4996952E-1],"categories":[],"categories_nodes":[],"categories_segments":[],"categories_sizes":[],"default_left":[0,0,0,0,0,0,0,0,0,0,0,0,0,0,0,0,0,0,0,0,0,0,0,0,0,0,0,0,0,0,0,0,0,0,0,0,0,0,0],"id":24,"left_children":[1,3,5,7,9,11,13,-1,15,-1,17,19,21,23,-1,25,-1,-1,-1,27,29,31,33,35,37,-1,-1,-1,-1,-1,-1,-1,-1,-1,-1,-1,-1,-1,-1],"loss_changes":[2.610409E0,2.1794527E0,3.0386536E0,1.0958552E0,2.430297E0,2.1948595E0,3.090889E0,0E0,1.2386642E0,0E0,6.555103E-1,3.5315707E0,2.655518E0,6.3443274E0,0E0,1.0440068E0,0E0,0E0,0E0,4.5564218E0,2.2642093E0,7.114735E0,2.8170075E0,1.6857845E0,4.876027E-1,0E0,0E0,0E0,0E0,0E0,0E0,0E0,0E0,0E0,0E0,0E0,0E0,0E0,0E0],"parents":[2147483647,0,0,1,1,2,2,3,3,4,4,5,5,6,6,8,8,10,10,11,11,12,12,13,13,15,15,19,19,20,20,21,21,22,22,23,23,24,24],"right_children":[2,4,6,8,10,12,14,-1,16,-1,18,20,22,24,-1,26,-1,-1,-1,28,30,32,34,36,38,-1,-1,-1,-1,-1,-1,-1,-1,-1,-1,-1,-1,-1,-1],"split_conditions":[1E0,8.6615925E0,1.3E1,3.156616E0,9.195561E0,2E0,9.195561E0,2.9865209E-2,5E0,9.42226E-2,9.547539E0,6E0,7.3536153E0,8.736619E0,-9.601139E-2,1E0,2.4738044E-2,-6.680798E-2,1.3895568E-2,5.368275E0,1E0,7.0412507E0,1E1,1E0,2E0,-1.0042655E-2,-7.849117E-2,-3.9565124E-2,1.0915983E-1,7.078595E-2,-4.913625E-2,5.7057696E-3,8.901164E-2,-2.1028744E-2,3.2724366E-2,1.6732145E-3,-4.7684237E-2,2.9138407E-2,1.4996952E-1],"split_indices":[7,12,6,12,12,7,12,0,8,0,12,6,12,12,0,8,0,0,0,12,3,12,7,10,8,0,0,0,0,0,0,0,0,0,0,0,0,0,0],"split_type":[0,0,0,0,0,0,0,0,0,0,0,0,0,0,0,0,0,0,0,0,0,0,0,0,0,0,0,0,0,0,0,0,0,0,0,0,0,0,0],"sum_hessian":[2.228402E2,2.022954E1,2.0261066E2,1.5972296E1,4.257243E0,1.6934683E2,3.3263824E1,1.0173957E0,1.49549E1,1.7066922E0,2.5505512E0,1.581037E1,1.5353645E2,2.9264017E1,3.9998076E0,1.3736923E1,1.2179762E0,1.2376455E0,1.3129057E0,1.0028453E1,5.7819176E0,9.344946E1,6.0086994E1,2.6895205E1,2.3688126E0,3.158988E0,1.0577936E1,2.1109946E0,7.9174585E0,1.2318357E0,4.5500817E0,8.271877E1,1.0730689E1,4.8910976E1,1.1176017E1,1.2358515E1,1.453669E1,1.086603E0,1.2822094E0],"tree_param":{"num_deleted":"0","num_feature":"13","num_nodes":"39","size_leaf_vector":"1"}},{"base_weights":[-1.2841914E-2,1.284947E-1,-1.22603975E-1,5.463303E-2,2.9697162E-1,1.00073814E-1,-2.1182105E-1,2.0822285E-1,-1.1280122E-1,-3.1847738E-2,5.460269E-1,2.0573112E-1,-3.6794734E-1,2.2288813E-1,-2.711963E-1,8.723071E-1,1.04456335E-1,1.883825E-1,-3.9733198E-1,3.4568685E-1,-4.8652163E-1,6.643098E-1,-7.560858E-2,4.1364074E-1,3.218662E-2,1.3432215E-2,-4.9920687E-1,4.43394E-1,-2.8842488E-1,2.2285068E-1,-3.1448227E-1,3.0324882E-2,1.0068631E-1,5.380298E-2,1.9350209E-3,-1.8888848E-2,4.3854635E-2,1.0394536E-2,-5.2396595E-2,8.8795386E-2,-8.707567E-3,7.594823E-2,-8.57593E-2,1.0281398E-2,8.2117476E-2,2.8890774E-2,-3.4684177E-2,2.573033E-2,1.1525637E-1,2.5357788E-2,-4.953762E-2,-6.970679E-2,5.8673443E-3,8.064058E-2,-1.8956255E-2,1.9157138E-2,-7.154434E-2,6.100729E-2,-6.923055E-2,-3.890029E-2,8.892397E-3],"categories":[],"categories_nodes":[],"categories_segments":[],"categories_sizes":[],"default_left":[0,0,0,0,0,0,0,0,0,0,0,0,0,0,0,0,0,0,0,0,0,0,0,0,0,0,0,0,0,0,0,0,0,0,0,0,0,0,0,0,0,0,0,0,0,0,0,0,0,0,0,0,0,0,0,0,0,0,0,0,0],"id":25,"left_children":[1,3,5,7,9,11,13,15,17,19,21,23,25,27,29,31,33,35,37,39,41,43,45,47,49,-1,51,53,55,57,59,-1,-1,-1,-1,-1,-1,-1,-1,-1,-1,-1,-1,-1,-1,-1,-1,-1,-1,-1,-1,-1,-1,-1,-1,-1,-1,-1,-1,-1,-1],"loss_changes":[3.4892457E0,1.2077938E0,2.5351338E0,1.8135443E0,2.4540777E0,1.8992038E0,2.4005876E0,2.4348636E0,2.9843793E0,2.53161E0,1.2991619E0,1.095315E0,5.3845274E-1,1.4181975E0,1.7856183E0,6.356001E-2,1.2013303E0,1.7034829E0,1.1831253E0,1.9798019E0,3.7313123E0,1.181488E0,4.5743144E-1,1.3085413E0,2.2082646E0,0E0,6.9003975E-1,2.0806596E0,9.680314E-1,2.919799E0,2.2643805E0,0E0,0E0,0E0,0E0,0E0,0E0,0E0,0E0,0E0,0E0,0E0,0E0,0E0,0E0,0E0,0E0,0E0,0E0,0E0,0E0,0E0,0E0,0E0,0E0,0E0,0E0,0E0,0E0,0E0,0E0],"parents":[2147483647,0,0,1,1,2,2,3,3,4,4,5,5,6,6,7,7,8,8,9,9,10,10,11,11,12,12,13,13,14,14,15,15,16,16,17,17,18,18,19,19,20,20,21,21,22,22,23,23,24,24,26,26,27,27,28,28,29,29,30,30],"right_children":[2,4,6,8,10,12,14,16,18,20,22,24,26,28,30,32,34,36,38,40,42,44,46,48,50,-1,52,54,56,58,60,-1,-1,-1,-1,-1,-1,-1,-1,-1,-1,-1,-1,-1,-1,-1,-1,-1,-1,-1,-1,-1,-1,-1,-1,-1,-1,-1,-1,-1,-1],"split_conditions":[1E0,1.1E1,1E0,2E0,2E0,3E0,1E0,1E0,5E0,1E0,3E0,7E0,2E0,3E0,1E0,3E0,1E0,2E0,1E0,1E0,1E0,1.2E1,3E0,6E0,2E0,1.3432215E-2,1.3E1,2E0,5E0,1.1E1,3E0,3.0324882E-2,1.0068631E-1,5.380298E-2,1.9350209E-3,-1.8888848E-2,4.3854635E-2,1.0394536E-2,-5.2396595E-2,8.8795386E-2,-8.707567E-3,7.594823E-2,-8.57593E-2,1.0281398E-2,8.2117476E-2,2.8890774E-2,-3.4684177E-2,2.573033E-2,1.1525637E-1,2.5357788E-2,-4.953762E-2,-6.970679E-2,5.8673443E-3,8.064058E-2,-1.8956255E-2,1.9157138E-2,-7.154434E-2,6.100729E-2,-6.923055E-2,-3.890029E-2,8.892397E-3],"split_indices":[10,6,9,9,9,11,3,5,6,9,11,6,6,9,5,6,2,6,4,11,1,6,9,6,11,0,6,11,6,6,11,0,0,0,0,0,0,0,0,0,0,0,0,0,0,0,0,0,0,0,0,0,0,0,0,0,0,0,0,0,0],"split_type":[0,0,0,0,0,0,0,0,0,0,0,0,0,0,0,0,0,0,0,0,0,0,0,0,0,0,0,0,0,0,0,0,0,0,0,0,0,0,0,0,0,0,0,0,0,0,0,0,0,0,0,0,0,0,0,0,0,0,0,0,0],"sum_hessian":[2.229027E2,9.736223E1,1.2554046E2,6.860813E1,2.8754095E1,3.587586E1,8.9664604E1,3.56564E1,3.2951733E1,1.27684555E1,1.598564E1,2.9725624E1,6.1502337E0,1.0444259E1,7.9220345E1,3.8176687E0,3.183873E1,1.6171583E1,1.6780151E1,7.106958E0,5.661498E0,1.3372511E1,2.6131287E0,1.2894401E1,1.6831224E1,1.2694197E0,4.880814E0,7.3900857E0,3.054173E0,6.0475793E0,7.317277E1,1.3522966E0,2.465372E0,4.350947E0,2.7487782E1,6.5454144E0,9.626169E0,3.4202688E0,1.3359882E1,2.687543E0,4.419415E0,1.0589541E0,4.602544E0,3.2815785E0,1.0090933E1,1.0870519E0,1.5260768E0,1.1755456E1,1.138944E0,1.2221727E1,4.609496E0,3.4187922E0,1.4620217E0,4.522387E0,2.8676987E0,1.6974759E0,1.356697E0,4.483768E0,1.5638114E0,6.1793457E1,1.1379309E1],"tree_param":{"num_deleted":"0","num_feature":"13","num_nodes":"61","size_leaf_vector":"1"}},{"base_weights":[-3.3094537E-2,2.4117604E-1,-8.26208E-2,3.3684072E-1,-3.4074238E-1,2.4699886E-1,-1.4244996E-1,-3.125779E-1,4.4246283E-1,1.6805207E-2,-6.4006615E-1,3.5116878E-1,-4.6640325E-1,1.6588134E-1,-1.8375804E-1,3.426794E-2,-6.598045E-2,1.1164325E-1,3.4572613E-1,-1.8933957E-2,-7.699745E-2,1.9135441E-1,1.005664E0,-8.484172E-2,3.0785946E-2,-2.4197748E-1,4.5994264E-1,-1.345209E-1,-4.4494596E-1,-5.189796E-2,4.2915016E-2,3.628423E-2,-2.74732E-2,1.3020248E-3,1.401257E-1,1.4784999E-2,-9.009444E-2,7.187318E-2,-3.6748078E-2,-1.941723E-2,4.4984464E-2,-7.052896E-2,-4.621176E-3],"categories":[],"categories_nodes":[],"categories_segments":[],"categories_sizes":[],"default_left":[0,0,0,0,0,0,0,0,0,0,0,0,0,0,0,0,0,0,0,0,0,0,0,0,0,0,0,0,0,0,0,0,0,0,0,0,0,0,0,0,0,0,0],"id":26,"left_children":[1,3,5,7,9,11,13,15,17,-1,19,21,23,25,27,-1,-1,-1,29,-1,-1,31,33,-1,-1,35,37,39,41,-1,-1,-1,-1,-1,-1,-1,-1,-1,-1,-1,-1,-1,-1],"loss_changes":[2.9407806E0,1.9599106E0,3.641803E0,2.1253092E0,8.9594084E-1,2.2788866E0,2.0100272E0,1.2814276E0,1.2654567E0,0E0,5.7228923E-2,2.464907E0,1.460839E0,2.3766234E0,1.7088556E0,0E0,0E0,0E0,1.9250875E0,0E0,0E0,1.8304793E0,1.8473959E0,0E0,0E0,2.3342128E0,2.6879997E0,4.171092E0,2.1869488E0,0E0,0E0,0E0,0E0,0E0,0E0,0E0,0E0,0E0,0E0,0E0,0E0,0E0,0E0],"parents":[2147483647,0,0,1,1,2,2,3,3,4,4,5,5,6,6,7,7,8,8,10,10,11,11,12,12,13,13,14,14,18,18,21,21,22,22,25,25,26,26,27,27,28,28],"right_children":[2,4,6,8,10,12,14,16,18,-1,20,22,24,26,28,-1,-1,-1,30,-1,-1,32,34,-1,-1,36,38,40,42,-1,-1,-1,-1,-1,-1,-1,-1,-1,-1,-1,-1,-1,-1],"split_conditions":[1E0,5E0,1E0,4.701802E0,6.801218E0,9.3107605E0,1E0,3.3062518E0,5.0881724E0,1.6805207E-2,2E0,7.872332E0,5E0,6.421641E0,8.9448595E0,3.426794E-2,-6.598045E-2,1.1164325E-1,5.4696474E0,-1.8933957E-2,-7.699745E-2,6.8467627E0,1E0,-8.484172E-2,3.0785946E-2,5.7954855E0,4E0,8.519544E0,1.00554905E1,-5.189796E-2,4.2915016E-2,3.628423E-2,-2.74732E-2,1.3020248E-3,1.401257E-1,1.4784999E-2,-9.009444E-2,7.187318E-2,-3.6748078E-2,-1.941723E-2,4.4984464E-2,-7.052896E-2,-4.621176E-3],"split_indices":[2,8,4,12,12,12,1,12,12,0,9,12,8,12,12,0,0,0,12,0,0,12,9,0,0,12,8,12,12,0,0,0,0,0,0,0,0,0,0,0,0,0,0],"split_type":[0,0,0,0,0,0,0,0,0,0,0,0,0,0,0,0,0,0,0,0,0,0,0,0,0,0,0,0,0,0,0,0,0,0,0,0,0,0,0,0,0,0,0],"sum_hessian":[2.1402808E2,3.2144722E1,1.8188335E2,2.796806E1,4.1766644E0,2.7461267E1,1.5442209E2,3.6383328E0,2.4329727E1,1.709461E0,2.4672031E0,2.4405384E1,3.0558832E0,1.7887882E1,1.365342E2,1.2647316E0,2.3736012E0,1.7307264E0,2.2599E1,1.1018254E0,1.3653778E0,2.0654377E1,3.7510078E0,1.9821397E0,1.0737435E0,7.568123E0,1.0319758E1,1.1615297E2,2.0381233E1,1.529057E0,2.1069942E1,1.5260916E1,5.39346E0,1.36323E0,2.3877778E0,5.242457E0,2.3256662E0,7.9611506E0,2.358608E0,1.0600029E2,1.0152674E1,1.1865273E1,8.51596E0],"tree_param":{"num_deleted":"0","num_feature":"13","num_nodes":"43","size_leaf_vector":"1"}},{"base_weights":[-5.1114876E-3,4.714469E-2,-3.18655E-1,1.8009941E-1,-6.4244196E-2,2.880144E-1,-4.7555733E-1,1.09349236E-1,5.870531E-1,4.1793907E-1,-1.243591E-1,8.095913E-2,4.256643E-2,5.0395925E-2,-5.573491E-1,2.3654595E-1,-4.600204E-2,2.2690526E-1,1.2239188E-1,6.320163E-1,-1.9287544E-1,4.598949E-1,-1.7880473E-1,3.2609606E-1,-6.013745E-2,-1.006309E-1,-4.051108E-1,-1.5889643E-2,3.5629313E-2,3.9124273E-2,-2.6413387E-2,5.7217875E-4,9.117101E-2,8.818296E-2,3.4092877E-2,3.4824785E-2,-6.860975E-2,-4.8156394E-4,8.080703E-2,-2.8522154E-3,-4.484481E-2,-4.735414E-3,5.8185685E-2,8.4315926E-2,-5.1896572E-2],"categories":[],"categories_nodes":[],"categories_segments":[],"categories_sizes":[],"default_left":[0,0,0,0,0,0,0,0,0,0,0,0,0,0,0,0,0,0,0,0,0,0,0,0,0,0,0,0,0,0,0,0,0,0,0,0,0,0,0,0,0,0,0,0,0],"id":27,"left_children":[1,3,5,7,9,11,13,15,17,19,21,-1,23,-1,25,27,29,31,-1,33,35,37,39,41,-1,-1,43,-1,-1,-1,-1,-1,-1,-1,-1,-1,-1,-1,-1,-1,-1,-1,-1,-1,-1],"loss_changes":[3.6502566E0,2.8408887E0,3.1662166E0,2.450926E0,3.0865762E0,8.8243484E-1,2.33681E0,1.5056589E0,2.6372352E0,1.6693954E0,3.067799E0,0E0,1.278007E0,0E0,1.2435708E0,2.033827E0,3.4311666E0,1.4103358E0,0E0,3.5359883E-1,1.2631338E0,1.3437091E0,3.4954782E0,4.8245138E-1,0E0,0E0,3.23952E0,0E0,0E0,0E0,0E0,0E0,0E0,0E0,0E0,0E0,0E0,0E0,0E0,0E0,0E0,0E0,0E0,0E0,0E0],"parents":[2147483647,0,0,1,1,2,2,3,3,4,4,5,5,6,6,7,7,8,8,9,9,10,10,12,12,14,14,15,15,16,16,17,17,19,19,20,20,21,21,22,22,23,23,26,26],"right_children":[2,4,6,8,10,12,14,16,18,20,22,-1,24,-1,26,28,30,32,-1,34,36,38,40,42,-1,-1,44,-1,-1,-1,-1,-1,-1,-1,-1,-1,-1,-1,-1,-1,-1,-1,-1,-1,-1],"split_conditions":[5E0,1E0,3E0,4E0,1E0,1E0,4.1609654E0,7.151348E0,7.9230895E0,7.9437313E0,1E0,8.095913E-2,3E0,5.0395925E-2,5.500511E0,4.701802E0,1E0,1.1E1,1.2239188E-1,5.7046065E0,2E0,3E0,7.3536153E0,2E0,-6.013745E-2,-1.006309E-1,5.683455E0,-1.5889643E-2,3.5629313E-2,3.9124273E-2,-2.6413387E-2,5.7217875E-4,9.117101E-2,8.818296E-2,3.4092877E-2,3.4824785E-2,-6.860975E-2,-4.8156394E-4,8.080703E-2,-2.8522154E-3,-4.484481E-2,-4.735414E-3,5.8185685E-2,8.4315926E-2,-5.1896572E-2],"split_indices":[8,10,7,8,3,3,12,12,12,12,0,0,9,0,12,12,9,7,0,12,9,8,12,9,0,0,12,0,0,0,0,0,0,0,0,0,0,0,0,0,0,0,0,0,0],"split_type":[0,0,0,0,0,0,0,0,0,0,0,0,0,0,0,0,0,0,0,0,0,0,0,0,0,0,0,0,0,0,0,0,0,0,0,0,0,0,0,0,0,0,0,0,0],"sum_hessian":[2.2086914E2,1.9004523E2,3.0823914E1,8.635468E1,1.0369054E2,6.162134E0,2.466178E1,7.464596E1,1.1708731E1,1.0834488E1,9.285606E1,1.2363878E0,4.9257464E0,1.5028272E0,2.3158953E1,4.075467E1,3.3891285E1,8.345584E0,3.3631475E0,7.9970016E0,2.837486E0,7.280662E0,8.557539E1,3.7626364E0,1.16311E0,4.443805E0,1.8715147E1,9.3967495E0,3.1357918E1,1.1016045E1,2.2875242E1,7.070315E0,1.2752687E0,3.2114668E0,4.785535E0,1.4932005E0,1.3442856E0,3.5408502E0,3.7398121E0,5.565982E1,2.991557E1,1.86065E0,1.9019864E0,1.0289123E0,1.7686235E1],"tree_param":{"num_deleted":"0","num_feature":"13","num_nodes":"45","size_leaf_vector":"1"}},{"base_weights":[-2.29049E-3,-4.6008492E-1,4.4078495E-2,3.3787135E-2,-5.4613143E-1,1.1369078E-1,-3.0689767E-1,-2.0680245E-2,-6.812929E-1,4.6965152E-1,5.4083154E-2,4.7222458E-2,-3.7444755E-1,1.5630986E-1,-2.8601129E-2,1.3277434E-1,-8.507453E-1,4.667635E-2,1.1474614E0,1.1100278E-1,-2.9826057E-1,-4.686506E-1,-8.166603E-2,-3.5142232E-4,2.718854E-2,5.160237E-2,-3.0034108E-2,-4.196312E-2,-1.0062529E-1,3.4566633E-2,-6.47234E-2,6.14877E-2,1.4151107E-1,5.4958936E-2,6.947393E-3,-5.9684884E-4,-6.316262E-2,-5.8784824E-2,4.1257683E-4,1.2609886E-2,-6.7376606E-2],"categories":[],"categories_nodes":[],"categories_segments":[],"categories_sizes":[],"default_left":[0,0,0,0,0,0,0,0,0,0,0,0,0,0,0,0,0,0,0,0,0,0,0,0,0,0,0,0,0,0,0,0,0,0,0,0,0,0,0,0,0],"id":28,"left_children":[1,3,5,-1,7,9,11,13,15,17,19,-1,21,23,-1,25,27,29,31,33,35,37,39,-1,-1,-1,-1,-1,-1,-1,-1,-1,-1,-1,-1,-1,-1,-1,-1,-1,-1],"loss_changes":[4.593185E0,1.5509119E0,4.836404E0,0E0,1.2888279E0,3.4697573E0,1.9029303E0,2.6940584E-1,2.121551E0,6.6831255E0,2.885543E0,0E0,8.0951834E-1,6.591758E-2,0E0,7.149881E-1,3.9478493E-1,3.441846E0,4.1087246E-1,2.2053552E0,1.9501129E0,1.3010831E0,1.1544288E0,0E0,0E0,0E0,0E0,0E0,0E0,0E0,0E0,0E0,0E0,0E0,0E0,0E0,0E0,0E0,0E0,0E0,0E0],"parents":[2147483647,0,0,1,1,2,2,4,4,5,5,6,6,7,7,8,8,9,9,10,10,12,12,13,13,15,15,16,16,17,17,18,18,19,19,20,20,21,21,22,22],"right_children":[2,4,6,-1,8,10,12,14,16,18,20,-1,22,24,-1,26,28,30,32,34,36,38,40,-1,-1,-1,-1,-1,-1,-1,-1,-1,-1,-1,-1,-1,-1,-1,-1,-1,-1],"split_conditions":[1E0,1E0,1.3E1,3.3787135E-2,1E0,1E0,1E0,3E0,1E0,8E0,5E0,4.7222458E-2,3E0,9E0,-2.8601129E-2,7E0,1E0,6E0,3E0,1E0,7E0,3E0,3E0,-3.5142232E-4,2.718854E-2,5.160237E-2,-3.0034108E-2,-4.196312E-2,-1.0062529E-1,3.4566633E-2,-6.47234E-2,6.14877E-2,1.4151107E-1,5.4958936E-2,6.947393E-3,-5.9684884E-4,-6.316262E-2,-5.8784824E-2,4.1257683E-4,1.2609886E-2,-6.7376606E-2],"split_indices":[7,5,6,0,8,2,1,9,2,6,8,0,9,6,0,6,9,6,8,0,7,11,11,0,0,0,0,0,0,0,0,0,0,0,0,0,0,0,0,0,0],"split_type":[0,0,0,0,0,0,0,0,0,0,0,0,0,0,0,0,0,0,0,0,0,0,0,0,0,0,0,0,0,0,0,0,0,0,0,0,0,0,0,0,0],"sum_hessian":[2.1442397E2,1.890043E1,1.9552353E2,1.5548495E0,1.7345583E1,1.6372629E2,3.1797245E1,3.784814E0,1.3560768E1,2.24976E1,1.412287E2,2.0589147E0,2.973833E1,2.5168362E0,1.2679777E0,2.3737025E0,1.1187066E1,1.4511081E1,7.986519E0,1.2217655E2,1.905214E1,2.2044714E1,7.693616E0,1.463132E0,1.053704E0,1.1577898E0,1.2159126E0,3.9460049E0,7.2410607E0,1.0492124E1,4.018957E0,3.7740386E0,4.21248E0,9.509779E0,1.1266677E2,1.0693807E1,8.358334E0,1.7411488E1,4.633226E0,6.277799E0,1.4158167E0],"tree_param":{"num_deleted":"0","num_feature":"13","num_nodes":"41","size_leaf_vector":"1"}},{"base_weights":[1.419558E-2,3.3804598E-1,-5.022335E-2,6.762866E-1,-1.10410996E-1,3.107115E-1,-1.0998431E-1,1.0920752E0,9.33421E-2,-2.9402304E-1,4.4930488E-1,-3.978496E-1,4.0870383E-1,2.7588803E-1,-1.508129E-1,1.3003713E0,3.1487322E-1,5.2659905E-1,-4.2785788E-1,2.4704924E-1,-5.14472E-1,-2.4043065E-2,9.362908E-2,9.452513E-3,-8.065074E-2,5.643015E-1,-2.0721099E-1,-3.895206E-1,6.5502065E-1,4.6654016E-2,-2.4029452E-1,5.9857544E-2,1.5187374E-1,6.7903444E-2,-2.5042657E-2,-3.4495465E-2,1.041375E-1,5.0037164E-2,-8.941418E-2,-2.7339438E-2,6.611603E-2,-8.4553786E-2,9.148436E-3,6.65729E-2,-3.6279116E-2,-6.351045E-2,2.9845327E-2,-9.1800116E-2,2.0242836E-2,9.822393E-2,-2.1985879E-3,6.1644044E-2,-2.1632263E-3,-4.415966E-2,-1.4263163E-2],"categories":[],"categories_nodes":[],"categories_segments":[],"categories_sizes":[],"default_left":[0,0,0,0,0,0,0,0,0,0,0,0,0,0,0,0,0,0,0,0,0,0,0,0,0,0,0,0,0,0,0,0,0,0,0,0,0,0,0,0,0,0,0,0,0,0,0,0,0,0,0,0,0,0,0],"id":29,"left_children":[1,3,5,7,9,11,13,15,17,19,21,23,25,27,29,31,33,35,37,39,41,-1,-1,-1,-1,43,45,47,49,51,53,-1,-1,-1,-1,-1,-1,-1,-1,-1,-1,-1,-1,-1,-1,-1,-1,-1,-1,-1,-1,-1,-1,-1,-1],"loss_changes":[4.5459485E0,5.5577607E0,3.958657E0,4.9265766E0,1.8176758E0,1.9753022E0,2.5125046E0,1.5357618E0,2.422579E0,1.672286E0,1.7187853E0,8.164162E-1,2.362185E0,4.1301913E0,2.5287158E0,4.941597E-1,9.645002E-1,2.9442792E0,2.597939E0,1.1345885E0,1.9889221E0,0E0,0E0,0E0,0E0,2.0255022E0,1.3701584E0,2.1261237E0,2.2718654E0,1.7746093E0,1.8677812E0,0E0,0E0,0E0,0E0,0E0,0E0,0E0,0E0,0E0,0E0,0E0,0E0,0E0,0E0,0E0,0E0,0E0,0E0,0E0,0E0,0E0,0E0,0E0,0E0],"parents":[2147483647,0,0,1,1,2,2,3,3,4,4,5,5,6,6,7,7,8,8,9,9,10,10,11,11,12,12,13,13,14,14,15,15,16,16,17,17,18,18,19,19,20,20,25,25,26,26,27,27,28,28,29,29,30,30],"right_children":[2,4,6,8,10,12,14,16,18,20,22,24,26,28,30,32,34,36,38,40,42,-1,-1,-1,-1,44,46,48,50,52,54,-1,-1,-1,-1,-1,-1,-1,-1,-1,-1,-1,-1,-1,-1,-1,-1,-1,-1,-1,-1,-1,-1,-1,-1],"split_conditions":[1E0,6.856613E0,1E0,6E0,9E0,2E0,1E0,3E0,1E0,1E0,2E0,2E0,1.3E1,6.1532044E0,1E0,2E0,1E0,5.296403E0,1E0,7.9437313E0,6E0,-2.4043065E-2,9.362908E-2,9.452513E-3,-8.065074E-2,9.195561E0,1.4E1,7E0,8.562466E0,1E0,1E0,5.9857544E-2,1.5187374E-1,6.7903444E-2,-2.5042657E-2,-3.4495465E-2,1.041375E-1,5.0037164E-2,-8.941418E-2,-2.7339438E-2,6.611603E-2,-8.4553786E-2,9.148436E-3,6.65729E-2,-3.6279116E-2,-6.351045E-2,2.9845327E-2,-9.1800116E-2,2.0242836E-2,9.822393E-2,-2.1985879E-3,6.1644044E-2,-2.1632263E-3,-4.415966E-2,-1.4263163E-2],"split_indices":[4,12,2,7,7,6,5,9,10,9,8,11,6,12,9,8,10,12,11,12,7,0,0,0,0,12,6,7,12,6,11,0,0,0,0,0,0,0,0,0,0,0,0,0,0,0,0,0,0,0,0,0,0,0,0],"split_type":[0,0,0,0,0,0,0,0,0,0,0,0,0,0,0,0,0,0,0,0,0,0,0,0,0,0,0,0,0,0,0,0,0,0,0,0,0,0,0,0,0,0,0,0,0,0,0,0,0,0,0,0,0,0,0],"sum_hessian":[2.1609088E2,3.5147552E1,1.8094333E2,1.974626E1,1.5401291E1,2.5106968E1,1.5583636E2,1.1015799E1,8.730462E0,1.1954401E1,3.4468899E0,2.6785986E0,2.242837E1,1.4360219E1,1.4147615E2,8.156618E0,2.8591812E0,4.7617836E0,3.968678E0,3.4256897E0,8.528711E0,1.6360217E0,1.810868E0,1.5634984E0,1.1151003E0,1.7971943E1,4.4564266E0,5.2023215E0,9.157897E0,4.426697E1,9.7209175E1,2.8234918E0,5.333126E0,1.6165928E0,1.2425884E0,1.8906565E0,2.8711271E0,1.3025641E0,2.6661139E0,1.66853E0,1.7571597E0,5.2596893E0,3.2690217E0,1.6453756E1,1.5181856E0,2.2751837E0,2.181243E0,2.457501E0,2.7448208E0,5.869922E0,3.2879753E0,3.8783557E0,4.0388615E1,3.0604908E1,6.660426E1],"tree_param":{"num_deleted":"0","num_feature":"13","num_nodes":"55","size_leaf_vector":"1"}},{"base_weights":[-3.1213708E-2,1.3357127E-1,-1.00390665E-1,-4.5229563E-1,1.9372989E-1,-5.251781E-1,-6.469065E-2,1.4070094E-2,-7.586041E-2,5.973789E-1,1.29936E-1,5.8658767E-2,-7.0666295E-1,-2.7117733E-2,-4.2905936E-1,-1.4971003E-1,1.0184542E-1,2.331575E-1,-2.7800295E-1,-4.818322E-3,-8.2527375E-1,-4.927898E-2,1.0482677E-1,-2.0555411E-1,-8.6534426E-2,-4.8475586E-2,3.163847E-2,4.2549398E-2,9.547498E-3,8.966464E-3,-4.9773484E-2,-9.022675E-2,-1.6725993E-2,2.8585995E-2,-7.992253E-3,3.113979E-2,-4.0944915E-2],"categories":[],"categories_nodes":[],"categories_segments":[],"categories_sizes":[],"default_left":[0,0,0,0,0,0,0,0,0,0,0,0,0,0,0,0,0,0,0,0,0,0,0,0,0,0,0,0,0,0,0,0,0,0,0,0,0],"id":30,"left_children":[1,3,5,7,9,11,13,-1,-1,15,17,-1,19,21,23,25,-1,27,29,-1,31,33,-1,35,-1,-1,-1,-1,-1,-1,-1,-1,-1,-1,-1,-1,-1],"loss_changes":[2.4866068E0,2.363706E0,2.2920368E0,1.2535287E0,1.4484842E0,2.7854285E0,1.9410315E0,0E0,0E0,2.609421E0,2.2736063E0,0E0,7.8462744E-1,3.1585011E0,1.1156619E0,7.291598E-1,0E0,1.0823581E0,9.3723583E-1,0E0,2.990799E-1,1.344451E0,0E0,1.1903186E0,0E0,0E0,0E0,0E0,0E0,0E0,0E0,0E0,0E0,0E0,0E0,0E0,0E0],"parents":[2147483647,0,0,1,1,2,2,3,3,4,4,5,5,6,6,9,9,10,10,12,12,13,13,14,14,15,15,17,17,18,18,20,20,21,21,23,23],"right_children":[2,4,6,8,10,12,14,-1,-1,16,18,-1,20,22,24,26,-1,28,30,-1,32,34,-1,36,-1,-1,-1,-1,-1,-1,-1,-1,-1,-1,-1,-1,-1],"split_conditions":[1E0,4.1024685E0,1E0,5E0,1E0,1E0,9.446305E0,1.4070094E-2,-7.586041E-2,6.672907E0,8.693179E0,5.8658767E-2,3E0,9.3107605E0,1.2E1,1E1,1.0184542E-1,4E0,2E0,-4.818322E-3,9.145395E0,4.033915E0,1.0482677E-1,1E0,-8.6534426E-2,-4.8475586E-2,3.163847E-2,4.2549398E-2,9.547498E-3,8.966464E-3,-4.9773484E-2,-9.022675E-2,-1.6725993E-2,2.8585995E-2,-7.992253E-3,3.113979E-2,-4.0944915E-2],"split_indices":[9,12,7,7,2,5,12,0,0,12,12,0,6,12,6,6,0,7,8,0,12,12,0,11,0,0,0,0,0,0,0,0,0,0,0,0,0],"split_type":[0,0,0,0,0,0,0,0,0,0,0,0,0,0,0,0,0,0,0,0,0,0,0,0,0,0,0,0,0,0,0,0,0,0,0,0,0],"sum_hessian":[2.1596005E2,6.3578995E1,1.5238106E2,5.3135486E0,5.8265446E1,1.0750627E1,1.4163043E2,1.9939759E0,3.3195724E0,6.810231E0,5.1455215E1,1.1954169E0,9.555209E0,1.29365E2,1.2265416E1,2.68711E0,4.1231213E0,4.1406506E1,1.004871E1,1.6730934E0,7.882116E0,1.2768783E2,1.6771798E0,9.083274E0,3.1821418E0,1.5400376E0,1.1470723E0,1.6402512E1,2.5003994E1,3.9804077E0,6.0683017E0,6.7241325E0,1.1579834E0,9.999364E0,1.1768847E2,2.4201136E0,6.6631603E0],"tree_param":{"num_deleted":"0","num_feature":"13","num_nodes":"37","size_leaf_vector":"1"}},{"base_weights":[-7.958139E-3,-1.8475905E-1,7.0573926E-2,-3.104831E-1,2.8226566E-1,4.1532984E-1,2.3179876E-2,1.0091498E-1,-3.8520262E-1,-2.6778987E-1,5.3000015E-1,6.432855E-1,-4.1720653E-1,4.4208527E-2,-8.164839E-2,4.412051E-1,-5.9255015E-2,-9.2355035E-2,-2.795756E-1,-7.054732E-1,6.668989E-2,6.2792134E-1,-1.5498804E-2,-2.284646E-2,9.92354E-1,4.688948E-3,-7.7685125E-2,-3.435975E-1,9.365375E-2,-3.376412E-2,7.327389E-2,-2.2769064E-2,-8.339577E-2,-2.0537881E-2,-8.249721E-2,9.219715E-2,2.0198308E-2,2.4354137E-2,-2.414097E-2,1.14175454E-1,-1.415878E-2,5.6979127E-2,-6.1294027E-2,5.818751E-2,6.1191847E-3],"categories":[],